
const env_width = 60;
const env_height = 80;
const render_zoom = 6;
const canvas_width = env_width * render_zoom;
const canvas_height = env_height * render_zoom;
const sight_percents = [-90, -60, -30, 0, 30, 60, 90];
const sight_range = 25;
const actor_y = 79;
const actor_diameter = 1;
const road_halfw = 12;
const max_road_change_dyn = 2;
const actor_speed = 2;

const straight_road_probab = 0.05;
const straight_road_max_len = 10;

// Reset with every episode
let actor_x;
let road = []; // same size as env_height, each item shows how far is the center of the road from the center of the environment
let rewardArray;

let brain;

function initBrain() {
	const num_inputs = sight_percents.length;
	const num_actions = 3;
	const temporal_window = 1; // amount of temporal memory. 0 = agent lives in-the-moment :)
	const network_size = num_inputs*temporal_window + num_actions*temporal_window + num_inputs;
	const layer_defs = [];
	layer_defs.push({type:'input', out_sx:1, out_sy:1, out_depth:network_size});
	layer_defs.push({type:'fc', num_neurons: 50, activation:'relu'});
	layer_defs.push({type:'fc', num_neurons: 50, activation:'relu'});
	layer_defs.push({type:'regression', num_neurons:num_actions});

	const tdtrainer_options = {learning_rate:0.001, momentum:0.0, batch_size:64, l2_decay:0.01};

	let opt = <any> {};
	opt.temporal_window = temporal_window;
	opt.experience_size = 30000;
	opt.start_learn_threshold = 1000;
	opt.gamma = 0.7;
	opt.learning_steps_total = 300000;
	opt.learning_steps_burnin = 3000;
	opt.epsilon_min = 0.05;
	opt.epsilon_test_time = 0.05;
	opt.layer_defs = layer_defs;
	opt.tdtrainer_options = tdtrainer_options;

	brain = new deepqlearn.Brain(num_inputs, num_actions, opt);
	brain.value_net.fromJSON(age305k);
}

// Setup for p5
function setup() {
	frameRate(150);
	createCanvas(canvas_width, canvas_height);
	initBrain();
	initEpisode();
}

function initEpisode() {
	initRoad();
	actor_x = env_width / 2;
	drawRoad();
	let sight = calculateSight();
	rewardArray = drawSight(sight);
	drawActor();
}

function initRoad(): number[] {
	for (let i = 0; i < env_height; i++) {
		road[i] = 0;
	}
	return road;
}


function newDynamic(): number {
	return Math.random() < 0.5 ?
		Math.floor((Math.random() * max_road_change_dyn) + 1) :
		Math.floor((Math.random() * max_road_change_dyn) - max_road_change_dyn);
}
let change_dynamic = newDynamic();
let go_straight = 0;

// Randomize road
function updateRoad() {
	let newHead;
	const oldHead = road[0];
	if (go_straight > 0) {
		//go straight
		newHead = oldHead;
		go_straight--;
	} else if (Math.random() < straight_road_probab) { 
		go_straight = Math.floor(Math.random() * straight_road_max_len) + 1;
		newHead = oldHead
	} else {
		const roadLeftSide = env_width / 2 + oldHead - road_halfw;
		const roadRigthSide = env_width / 2 + oldHead + road_halfw;
		if ((roadLeftSide + change_dynamic) < 0 || (roadRigthSide + change_dynamic) > env_width) {
			do {
				change_dynamic = newDynamic();
			} while (roadLeftSide + change_dynamic < 0 || roadRigthSide + change_dynamic > env_width);
		}
		newHead = oldHead + change_dynamic;
	}
	road = road.slice(0, 79);
	road.unshift(newHead);
}

function updateActorX(action: number) {
	if (action == 0) { // GO LEFT
		if (actor_x - actor_speed >= 0) {
			actor_x-=actor_speed;
		}
	} else if (action == 1) { // STAY
	} else if (action == 2) { // GO RIGHT
		if (actor_x + actor_speed <= env_width) {
			actor_x+=actor_speed;
		}
	}
}

// Draw called by p5
function draw() {
	var action = brain.forward(rewardArray);
	updateActorX(action);
	const r = reward();
	brain.backward(r);
	clear();
	if (r < 0) {
		initEpisode();
	} else {
		drawRoad();
		rewardArray = calculateSight();
		drawSight(rewardArray);
		drawActor();
		updateRoad();
	}

	text("Age:" + brain.age, 5, 15);
	text("Learning:" + brain.learning, 5, 35);
}

let running = true;

function keyPressed() {
	if (keyCode == 32) { // space
		if (running) {
			noLoop();
			running = false;
		} else {
			loop();
			running = true;
		}
	}
	// if (keyCode == 37) { // left
	// 	updateActorX(0);
	// } else if (keyCode == 39) { // right
	// 	updateActorX(2)
	// }
}



function reward(): number {
	const roadLeftSide = env_width / 2 + road[actor_y] - road_halfw;
	const roadRigthSide = env_width / 2 + road[actor_y] + road_halfw;
	if (actor_x <= roadLeftSide || actor_x >= roadRigthSide) {
		return -10;
	} else {
		return 1;
	}
}

function drawLine(x1: number, y1: number, x2: number, y2: number) {
	line(
		x1 * render_zoom,
		y1 * render_zoom,
		x2 * render_zoom,
		y2 * render_zoom);
}

function drawRect(x1: number, y1: number, x2: number, y2: number) {
	rect(
		x1 * render_zoom,
		y1 * render_zoom,
		x2 * render_zoom,
		y2 * render_zoom);
}

function drawActor() {
	stroke(color(0, 0, 0));
	ellipse(
		actor_x * render_zoom,
		actor_y * render_zoom,
		actor_diameter * render_zoom,
		actor_diameter * render_zoom);
}

function drawRoad() {
	road.forEach(function(rd_center, index) {
		const center = env_width/2 + rd_center;
		stroke(color(211, 211, 211));
		fill(color(211, 211, 211));
		drawRect(center - road_halfw, index, 2 * road_halfw, 1);
	});
}

function toRadian(degrees: number): number {
  return degrees * Math.PI / 180;
}

function calculateSight(): number[] {
	const ranges = sight_percents.map(function(p){
		let range;
		for (range = actor_diameter; range <= sight_range; range++) {
			let possible_x = Math.round(Math.sin(toRadian(p)) * range);
			let possible_y = Math.round(Math.cos(toRadian(p)) * range);
			const roadLeftSide = env_width / 2 + road[actor_y - possible_y] - road_halfw;
			const roadRigthSide = env_width / 2 + road[actor_y - possible_y] + road_halfw;
			if (roadLeftSide > actor_x + possible_x || roadRigthSide < actor_x + possible_x) {
				break;
			}

		}
		return range - 1;
	});
	return ranges;
}

function drawSight(ranges: number[]) {
	ranges.forEach(function(r, index) {
		if (r > 1) {
			let sight_x = Math.round(Math.sin(toRadian(sight_percents[index])) * r);
			let sight_y = Math.round(Math.cos(toRadian(sight_percents[index])) * r);
			const green = r * 10;
			const red = 255 - green;
			stroke(color(red, green, 150));
			drawLine(actor_x, actor_y, actor_x + sight_x, actor_y - sight_y);
		}
	});
}

const age305k = {"layers":[{"out_depth":17,"out_sx":1,"out_sy":1,"layer_type":"input"},{"out_depth":50,"out_sx":1,"out_sy":1,"layer_type":"fc","num_inputs":17,"l1_decay_mul":0,"l2_decay_mul":1,"filters":[{"sx":1,"sy":1,"depth":17,"w":{"0":-0.08514900339027633,"1":-0.005891907391737277,"2":-0.01512425030642185,"3":0.0057610909014879025,"4":0.039546722937286706,"5":-0.10876869021564481,"6":0.2505831720885225,"7":0.26261086487257734,"8":-0.307998053270843,"9":-0.5221031279637534,"10":0.17726822522350663,"11":-0.08589703076722638,"12":-0.21729444613160423,"13":0.08439854994946776,"14":0.037502552888920085,"15":-0.010237406402812513,"16":-0.002738438671873733}},{"sx":1,"sy":1,"depth":17,"w":{"0":-0.34806337820709954,"1":-0.05637335064935571,"2":0.04453594572250913,"3":-0.006561168671413692,"4":0.24616414430577327,"5":0.46118771342403453,"6":0.710098499753686,"7":0.0018432051858190198,"8":-0.10879994195063661,"9":0.4661934987508253,"10":0.03165623466415145,"11":0.29191664587145905,"12":0.17858822594278398,"13":0.6140356184234022,"14":0.244247491221202,"15":0.1024661892445108,"16":-0.2951320818489043}},{"sx":1,"sy":1,"depth":17,"w":{"0":-0.08335144683592322,"1":0.10763288373717919,"2":-0.3705146539446157,"3":-0.15917104389414335,"4":-0.2766624295702129,"5":0.1881960258021869,"6":0.08701668092960183,"7":-0.22175623979940934,"8":-0.3720731372777256,"9":-0.22280075313583847,"10":0.0923909462542609,"11":0.07644141306671154,"12":0.2837713998567368,"13":-0.24431907905122552,"14":-0.4001413053711099,"15":0.15241841545409354,"16":0.14772910003791878}},{"sx":1,"sy":1,"depth":17,"w":{"0":0.21899807272699987,"1":-0.18160520388375886,"2":0.021501962539065358,"3":0.014956972600183562,"4":-0.05127608365457495,"5":-0.4303693423611732,"6":-0.036297381672721465,"7":-0.4023495838587503,"8":0.1832604155001002,"9":-0.08208906298730621,"10":0.10789522323597801,"11":-0.5619128300925669,"12":0.0943544718645107,"13":0.31382570632016626,"14":-0.13354665285268627,"15":-0.10597948065575825,"16":-0.045527010299537304}},{"sx":1,"sy":1,"depth":17,"w":{"0":0.47828970501411316,"1":-0.004413712470732595,"2":-0.20195194005249076,"3":-0.17440345019705542,"4":0.0937078437575115,"5":0.1091083492161034,"6":-0.4543275671629096,"7":-0.03909248918759488,"8":-0.07691908857422437,"9":-0.004421992199014823,"10":0.009162005283822218,"11":-0.2562065136981541,"12":-0.15694127083881976,"13":-0.022356530836689842,"14":0.2732511679899658,"15":0.11067747933596714,"16":0.0014410206745240793}},{"sx":1,"sy":1,"depth":17,"w":{"0":0.07261380695101811,"1":0.11455143632390953,"2":-0.7006784994173827,"3":0.2086500834241619,"4":-0.26759114081504254,"5":-0.04045306417394997,"6":-0.04421238583406808,"7":-0.01268805427973986,"8":0.19808128400383437,"9":-0.25858575233409514,"10":-0.03593010889219427,"11":-0.035983675561676434,"12":0.17151835885088224,"13":-0.1379579336165097,"14":0.2334815523657798,"15":0.35863585208731874,"16":-0.20930772996482258}},{"sx":1,"sy":1,"depth":17,"w":{"0":-0.6127830712056758,"1":-0.5904569272916556,"2":-0.007768947453454669,"3":-0.009055082367448229,"4":0.6054019160892947,"5":0.038267709320566924,"6":-0.2755033696813137,"7":-0.15403508398230578,"8":0.0884034947355531,"9":0.07808042032839728,"10":0.09705708217002487,"11":-0.0031683131124001346,"12":-0.08271325268958558,"13":0.27352767589548654,"14":-0.10089377282452443,"15":0.12287630500132231,"16":-0.2662067806169058}},{"sx":1,"sy":1,"depth":17,"w":{"0":-0.19578096736169695,"1":0.09656423332736988,"2":-0.16711742313152592,"3":0.031902253323701724,"4":-0.14814624859938105,"5":-0.34991420373449195,"6":0.2953875817136213,"7":-0.40834699151824566,"8":0.24843111216248032,"9":0.6129901201110706,"10":0.32195216263455034,"11":-0.13126452098754054,"12":-0.6084076498834143,"13":-0.09708383210443408,"14":-0.2871808004606483,"15":0.08580492334857158,"16":0.3744033532641358}},{"sx":1,"sy":1,"depth":17,"w":{"0":0.14927272675966985,"1":-0.4420329970385484,"2":0.35689882562604924,"3":-0.1659050192229809,"4":-0.19725365742468187,"5":0.025040201090721855,"6":-0.09343906290523298,"7":0.04555553861817278,"8":0.016381453911622094,"9":0.19767291186609318,"10":0.06295565173564428,"11":0.3570299834225262,"12":-0.049827588763484885,"13":-0.18656469229692804,"14":-0.405290786332945,"15":-0.083622450182267,"16":-0.3727210198801588}},{"sx":1,"sy":1,"depth":17,"w":{"0":0.22870226359911963,"1":0.3355284222179064,"2":-0.2679691539289323,"3":-0.2218253780474413,"4":-0.0555231501276419,"5":-0.04953368370882845,"6":-0.3081210210957896,"7":-0.3840841075021108,"8":-0.23977302280064247,"9":-0.1782712750402624,"10":0.11103992373462081,"11":-0.03125348740011014,"12":0.3145327389739753,"13":0.05576203591817166,"14":0.2650339613163549,"15":-0.6170111090367988,"16":0.09136510429263589}},{"sx":1,"sy":1,"depth":17,"w":{"0":-0.4484095247147443,"1":-0.12827812894243995,"2":-0.4070103612539979,"3":-0.10560732519502541,"4":-0.14654528996405303,"5":-0.15864108812333907,"6":-0.0350705120710058,"7":-0.14972613209165608,"8":0.06708425261592905,"9":0.24532390858555914,"10":0.1729263686558546,"11":0.09820100898206756,"12":-0.196287661596826,"13":-0.07350748214241103,"14":0.0754693709332283,"15":0.3533551017361074,"16":-0.05432930955733833}},{"sx":1,"sy":1,"depth":17,"w":{"0":0.04118461620272646,"1":-0.0016679802985099881,"2":0.25301400948341063,"3":-0.01901325671899257,"4":-0.4807745932646481,"5":-0.09833691897368443,"6":-0.1359101675207122,"7":-0.4828440005331938,"8":-0.32932134995882695,"9":-0.35136901431253675,"10":0.28158914653372247,"11":0.4047231607744609,"12":0.18458469057057728,"13":0.11500545212956201,"14":0.14457706169837417,"15":0.08942551014786572,"16":0.4007304850140908}},{"sx":1,"sy":1,"depth":17,"w":{"0":0.7944694807776833,"1":0.04145958308184481,"2":-0.25473820659287816,"3":-0.28264499179726765,"4":0.3229230559868207,"5":0.0460223886532143,"6":-0.07483031130092177,"7":0.0884021887658613,"8":0.5000535362611501,"9":0.21511970421947252,"10":-0.009375793941303117,"11":-0.21680747609647694,"12":0.4298073064032086,"13":-0.06925945889127534,"14":-0.2825515801568008,"15":0.3310245459337707,"16":0.2072706538934165}},{"sx":1,"sy":1,"depth":17,"w":{"0":-0.28621673076406934,"1":0.6859981914184176,"2":0.1970963890669617,"3":0.016714774561143186,"4":-0.19913520668477244,"5":0.3813559896893476,"6":0.016456169442535154,"7":-0.12959949326229306,"8":-0.09280198470049224,"9":0.002385427494848193,"10":-0.07861853831644312,"11":0.4796395206802923,"12":-0.1334375184887901,"13":-0.3783471094578261,"14":-0.34181082843696925,"15":0.3357488227380018,"16":0.07159979462208074}},{"sx":1,"sy":1,"depth":17,"w":{"0":-0.20383679239809466,"1":-0.07102479419096705,"2":0.14179870863519667,"3":0.11669851464362027,"4":-0.4825862209999204,"5":0.1070962279210007,"6":0.29756694447854815,"7":0.3491165744232785,"8":-0.02864796360214117,"9":-0.3461075919123612,"10":0.09234748850835425,"11":-0.18544743948276388,"12":-0.362297305855946,"13":-0.35318029532833356,"14":0.05342674775899227,"15":-0.007498163158751205,"16":-0.17419188052577758}},{"sx":1,"sy":1,"depth":17,"w":{"0":-0.2661376934191663,"1":-0.006023681396003119,"2":-0.30387726667667075,"3":0.14766245053916668,"4":-0.2093632416776234,"5":0.31048552713162697,"6":0.011419022381715323,"7":-0.01795975523181146,"8":-0.07063299192277109,"9":0.14888423681511118,"10":0.37556262113277433,"11":-0.16613693651343736,"12":0.026686397081506743,"13":-0.022658889062478708,"14":-0.2921397485446587,"15":0.17952428723955394,"16":0.04686164311083261}},{"sx":1,"sy":1,"depth":17,"w":{"0":0.21146586894328406,"1":0.12380875436661024,"2":-0.16769670422070307,"3":-0.360062021719828,"4":-0.5681539963557656,"5":-0.09469407655903272,"6":0.2291954142516056,"7":-0.13982942173120996,"8":-0.026353304283833357,"9":0.21398655536047528,"10":-0.12690329561139518,"11":0.10130656896816816,"12":0.006525445630441985,"13":0.10158611544911848,"14":0.11133235435385437,"15":-0.18306998726178655,"16":0.2032487527570655}},{"sx":1,"sy":1,"depth":17,"w":{"0":0.5273744900351953,"1":-0.03994141220725979,"2":-0.2060923544335978,"3":0.005409350479303417,"4":-0.4269592445898388,"5":-0.6439779114636708,"6":-0.3466212349008655,"7":0.3390339170442193,"8":-0.08544086700109814,"9":0.0658567744331798,"10":-0.021283956508412395,"11":-0.04101423800652578,"12":-0.16523754759409565,"13":-0.30451683213967806,"14":-0.19551594203831113,"15":-0.16233437936932568,"16":0.08869527620797592}},{"sx":1,"sy":1,"depth":17,"w":{"0":0.006966324377379289,"1":0.28807987857120587,"2":-0.44052942353071867,"3":-0.049147174391872696,"4":0.19439762375114045,"5":-0.27642264844610925,"6":0.3329590103969287,"7":0.08173199281492698,"8":0.15323405643233373,"9":-0.14095135506742107,"10":0.46417538649097256,"11":0.1978412250042284,"12":-0.044456961094499176,"13":-0.13207277394577183,"14":0.07746697422773327,"15":0.07555708547362992,"16":-0.16589316986341365}},{"sx":1,"sy":1,"depth":17,"w":{"0":-0.09619469964619005,"1":0.08077455194066041,"2":0.07753875115758792,"3":-0.1655451012693254,"4":-0.22877841133216206,"5":0.15473665873076806,"6":0.01835126517128208,"7":-0.09619041570930396,"8":0.1774673113106173,"9":-0.06309606827098678,"10":0.2511123498266488,"11":-0.06730815407336434,"12":0.08258525407705301,"13":0.3507706844196309,"14":0.10945354418165554,"15":-0.18372321644366782,"16":-0.12727537323552304}},{"sx":1,"sy":1,"depth":17,"w":{"0":-0.5337405694374802,"1":-0.38684616664615457,"2":-0.2838904123072137,"3":-0.4250472889965016,"4":-0.3580020917227709,"5":0.32439999437381967,"6":0.06122812032076967,"7":-0.18351055116163287,"8":0.09677409629412487,"9":0.0271750170277167,"10":0.4718749040605241,"11":-0.1007087270149614,"12":-0.38310815958795863,"13":0.32017047458851794,"14":0.10559013490219096,"15":0.2747449440023284,"16":-0.0012688725208096147}},{"sx":1,"sy":1,"depth":17,"w":{"0":-0.11489129719759052,"1":-0.2948777576373515,"2":0.061903202973003765,"3":0.28121693947744547,"4":-0.3136864170634184,"5":0.36851682826632615,"6":0.033538558371041534,"7":-0.16626920625536737,"8":-0.054915962659424056,"9":-0.01338372934645036,"10":0.08596444882261796,"11":-0.20478670538852167,"12":0.24970032730061412,"13":0.23580560495392544,"14":-0.07020257605734334,"15":0.21371499394153415,"16":0.24529607786519372}},{"sx":1,"sy":1,"depth":17,"w":{"0":-0.0924797869324601,"1":0.10715974733773483,"2":0.5350130130827632,"3":-0.18824559202106317,"4":0.1890131048436303,"5":0.1702424364688874,"6":0.31655689598374664,"7":-0.19230946752959277,"8":0.07760004609729855,"9":0.08752896483384721,"10":-0.047782950236284205,"11":-0.49486554480939166,"12":-0.20834277167281526,"13":-0.12463142104254099,"14":0.01823913344632086,"15":-0.17866169269985224,"16":0.020804262227481583}},{"sx":1,"sy":1,"depth":17,"w":{"0":0.18558420044005042,"1":-0.2847147286008697,"2":0.02898916735466641,"3":0.17812139118567102,"4":0.2360648440479755,"5":-0.1505029784244981,"6":0.10702584168044353,"7":-0.0485602874804693,"8":0.003596657463920491,"9":0.46678904374551966,"10":-0.23793804625758985,"11":-0.08449487186933818,"12":0.11703749762727315,"13":-0.13133651407798938,"14":-0.10314321522187428,"15":-0.1621725638817214,"16":-0.19731889657683693}},{"sx":1,"sy":1,"depth":17,"w":{"0":0.1102035595270697,"1":-0.3929545824510538,"2":0.14991262094813024,"3":-0.43291972622189595,"4":0.3122334870191987,"5":0.001153278872120334,"6":0.24277337528252294,"7":0.23964980881547623,"8":-0.334702345432546,"9":0.38557098110770066,"10":0.08326109630082432,"11":0.30007245832339285,"12":0.06423224753314195,"13":-0.0948055607942558,"14":-0.023009417942628004,"15":0.08356360478293261,"16":0.0714897643572968}},{"sx":1,"sy":1,"depth":17,"w":{"0":-0.34324297094856393,"1":0.12285593905440878,"2":-0.06477159238034794,"3":-0.3287487183232697,"4":-0.07597053017771598,"5":-0.1891499215847578,"6":0.129355692463251,"7":0.17386697077837313,"8":-0.03305013851808359,"9":-0.09497245833599416,"10":0.13578682386968072,"11":-0.040859522890598,"12":-0.06557290559676832,"13":-0.15946500500005692,"14":-0.04195880861460707,"15":0.322878692815025,"16":-0.05057712577207222}},{"sx":1,"sy":1,"depth":17,"w":{"0":-0.15523470715935062,"1":0.06841230687133096,"2":-0.05616654465856895,"3":-0.1018825373007566,"4":-0.5160656670194872,"5":-0.43914188276101834,"6":-0.03811118529504685,"7":0.31888795691341876,"8":0.02532990120911222,"9":-0.18338379025735388,"10":0.03212744739112833,"11":-0.32597883344799605,"12":-0.435838379250588,"13":0.24081245457470396,"14":-0.34920493863766877,"15":-0.0723494691735424,"16":0.516402949062545}},{"sx":1,"sy":1,"depth":17,"w":{"0":0.1970791499804103,"1":-0.3346084978962958,"2":-0.1907062185825931,"3":-0.2841738901326002,"4":-0.48461022243483814,"5":-0.024475653903434442,"6":-0.08029042693932462,"7":-0.04107651072291213,"8":-0.24810543348275907,"9":0.07057642623605945,"10":0.04341158712899668,"11":-0.11918873282464346,"12":0.1727205089921551,"13":0.1566651446492874,"14":0.09159402193862752,"15":-0.20413856180097695,"16":-0.37232792670821085}},{"sx":1,"sy":1,"depth":17,"w":{"0":-0.33221374525635644,"1":-0.12220282244258686,"2":0.10419073203353428,"3":-0.3377480323733617,"4":0.14538476855451352,"5":-0.5125224477235797,"6":-0.0749079788826583,"7":-0.0004004878061305588,"8":0.2904286144671921,"9":-0.1767634547950705,"10":-0.13484119900744507,"11":0.1194351635440079,"12":0.021924998046289314,"13":0.49249759608720095,"14":-0.033191817898979535,"15":0.3015921566539099,"16":-0.24556795156103267}},{"sx":1,"sy":1,"depth":17,"w":{"0":0.13411545055674345,"1":0.015573272740575357,"2":-0.0982056624437492,"3":-0.051186682491052196,"4":-0.01897268524212188,"5":-0.23676711015464366,"6":-0.24937324281846357,"7":0.3080608370659777,"8":-0.5076504928806366,"9":-0.09038620450136588,"10":-0.0379846540447113,"11":0.33343084585534977,"12":-0.34253239425549736,"13":-0.27659722981184365,"14":-0.08523321255473598,"15":-0.010899109850989575,"16":0.1534483742393257}},{"sx":1,"sy":1,"depth":17,"w":{"0":0.0749501852562051,"1":0.061653853831857945,"2":0.07992889674843374,"3":-0.17067592838570367,"4":-0.14309290509687336,"5":0.12290693052028821,"6":0.25436254481350884,"7":0.1075832028112642,"8":-0.07329144154999705,"9":0.2789718038311878,"10":0.1836192285953631,"11":-0.22430274936636338,"12":0.14632069675765197,"13":-0.23883965658059197,"14":0.023984607836379315,"15":0.2707112391320833,"16":0.00584190465035481}},{"sx":1,"sy":1,"depth":17,"w":{"0":-0.03193998929005786,"1":-0.026296173815955975,"2":-0.3861017965426538,"3":-0.0117462571643367,"4":-0.12147329140031643,"5":0.11933863126840359,"6":0.2163000413312158,"7":-0.14682465387998908,"8":-0.3758680052273183,"9":0.08330976047627008,"10":-0.5590508301076492,"11":-0.23628155341994078,"12":-0.10710889205991743,"13":0.11362058599343383,"14":0.2236046820619102,"15":-0.187005245692509,"16":0.22615046116337037}},{"sx":1,"sy":1,"depth":17,"w":{"0":0.0006428232658645096,"1":0.0732897451473317,"2":0.22862578878289685,"3":0.11293439523464521,"4":0.16729374455494808,"5":-0.0008736529402808053,"6":-0.28126132475856036,"7":0.08365167324321937,"8":-0.04631077161533003,"9":-0.06991214208908665,"10":0.29132667881221974,"11":-0.2453935852190294,"12":0.2566973860857676,"13":0.034821700129121974,"14":0.10769045561209525,"15":-0.08070701092611177,"16":-0.02442271006793879}},{"sx":1,"sy":1,"depth":17,"w":{"0":-0.37305035274315346,"1":-0.12591840540207752,"2":-0.15907133168677925,"3":-0.33387691127708186,"4":-0.10073332351965476,"5":0.039970013391794436,"6":-0.35251587868981027,"7":-0.01380011655526867,"8":0.2520086664592323,"9":-0.3255357304909303,"10":-0.31186978841996327,"11":0.31144369780974696,"12":-0.13667216273079466,"13":0.14323777359769452,"14":0.3670945825034257,"15":-0.30636778123111114,"16":0.005997705930070775}},{"sx":1,"sy":1,"depth":17,"w":{"0":0.12783776679939657,"1":0.2162774724685394,"2":0.03958624485789132,"3":0.20901021201180175,"4":-0.0874330574992855,"5":0.002096345204948376,"6":0.11472841661024852,"7":0.026298989320167387,"8":-0.14359045799114814,"9":0.28774726654049704,"10":-0.15450137275836692,"11":-0.02493159362980635,"12":-0.14242988294974254,"13":0.2976148050144179,"14":-0.10907964998055422,"15":0.00518737746148935,"16":0.07308696621019092}},{"sx":1,"sy":1,"depth":17,"w":{"0":-0.20991985932923934,"1":0.17257430976608465,"2":0.24601039815092857,"3":0.18953540006002306,"4":0.23393498612679386,"5":0.1431644528072977,"6":0.3279174848241446,"7":0.13479969886210993,"8":0.14826457378816782,"9":0.3451140430590237,"10":-0.3804857469130937,"11":0.09443640032007826,"12":0.5172808465205315,"13":0.17655692172339535,"14":0.3926495931687586,"15":0.18023521863600964,"16":-0.003265832172557047}},{"sx":1,"sy":1,"depth":17,"w":{"0":-0.06636913658834954,"1":0.01818657560095676,"2":-0.4269630488856009,"3":-0.43237070000011113,"4":-0.4851110604347617,"5":0.47683123210453826,"6":-0.00290226654126166,"7":0.059245373090657354,"8":0.07298035475782537,"9":-0.1084730436928567,"10":0.1363336774684602,"11":0.0524117023562601,"12":0.020240520518169932,"13":-0.17433483993889745,"14":0.0719235926953443,"15":-0.12702961423874387,"16":-0.009835761701974}},{"sx":1,"sy":1,"depth":17,"w":{"0":0.8534657865300308,"1":0.3053576967231317,"2":0.3552129949560247,"3":0.14826255148094614,"4":0.012745576531019624,"5":0.12080823042138521,"6":-0.7714904362697044,"7":-0.03830332502140609,"8":0.6684253032595289,"9":0.398218498017344,"10":-0.2677248192959099,"11":0.07309294862330325,"12":0.14095569677548317,"13":0.12466916363021983,"14":-0.2243482109637221,"15":0.08376877372352245,"16":0.16136683208190644}},{"sx":1,"sy":1,"depth":17,"w":{"0":0.012818751007078778,"1":-0.13615914607134344,"2":-0.15969858878854434,"3":0.7368754435399267,"4":-0.07035943703784475,"5":-0.17849073948509886,"6":0.020897263551915925,"7":0.09922497544840968,"8":0.3512877423360911,"9":0.09404756589972496,"10":-0.04650023373719866,"11":0.3321540626152806,"12":-0.3316199214163396,"13":-0.5675515279775758,"14":-0.1883747326128354,"15":0.16922424375297476,"16":-0.10415276505957163}},{"sx":1,"sy":1,"depth":17,"w":{"0":-0.04547231109230618,"1":-0.1820235184426937,"2":0.21810394048001344,"3":-0.20101549865029475,"4":0.05262218498393439,"5":0.11492712295196013,"6":0.3325965988077419,"7":0.2167985799010404,"8":-0.45253308721953917,"9":0.09634445848410451,"10":-0.3324358173874354,"11":0.07377370276019096,"12":0.07659545202009066,"13":0.1354798945798291,"14":0.17361590647120015,"15":0.1077823517794036,"16":-0.5814189246695846}},{"sx":1,"sy":1,"depth":17,"w":{"0":0.18727584399531083,"1":0.15080596741700925,"2":-0.2976370397881997,"3":0.04157549643307057,"4":-0.1275177319434074,"5":-0.01162040680324313,"6":-0.2844852881786453,"7":-0.22640782005884863,"8":-0.2254899249979099,"9":-0.2861568646081944,"10":0.6328483320920866,"11":-0.09332768891681074,"12":-0.0037273212960826684,"13":-0.5289178089117026,"14":0.1269045946856641,"15":-0.20718576962898794,"16":0.25831944208329366}},{"sx":1,"sy":1,"depth":17,"w":{"0":0.12265086547204601,"1":0.1035602362289361,"2":0.22592095673338541,"3":-0.21331093868627182,"4":0.41844772782559064,"5":-0.04777061887346104,"6":-0.2910865611485896,"7":-0.0092665793106669,"8":0.10914061403038564,"9":0.05619797309680422,"10":0.006796012238619856,"11":0.28658843455341393,"12":-0.11120704848374588,"13":-0.04023406008922756,"14":0.014595108411398322,"15":0.4555892576937902,"16":-0.07208455281647783}},{"sx":1,"sy":1,"depth":17,"w":{"0":0.050342171166846514,"1":0.3256806840799551,"2":0.12992374339691093,"3":-0.00018449550811030255,"4":-0.017528667268463957,"5":0.07204302477117767,"6":0.1739825910834338,"7":0.10948399547466472,"8":-0.001896939896345615,"9":-0.36722080677546326,"10":-0.1262391529196188,"11":0.3602858160639179,"12":-0.11986031389707606,"13":-0.0032537578549475506,"14":-0.21118207881802548,"15":-0.3814550123325988,"16":-0.10097767612693662}},{"sx":1,"sy":1,"depth":17,"w":{"0":0.20811203372091325,"1":0.06637661335365265,"2":0.05928737831419107,"3":0.30590053882129326,"4":0.3512475505010861,"5":0.3292816301601872,"6":-0.38374584039636295,"7":-0.05734598100888087,"8":0.3450485607695296,"9":-0.026244593529651934,"10":-0.16802690128714765,"11":-0.3994159149748966,"12":-0.13910404714444222,"13":0.08939179941804107,"14":-0.3211374163384896,"15":0.1794499036007963,"16":-0.04275360144204559}},{"sx":1,"sy":1,"depth":17,"w":{"0":0.35010501115520043,"1":-0.14301707319731405,"2":0.3813697260932538,"3":0.23883476480699153,"4":0.04606580124729999,"5":0.35637966318996456,"6":0.052822081002057805,"7":0.07756497624309686,"8":0.7519580765972016,"9":0.09880935896847066,"10":0.42176428468430127,"11":0.02665028824046434,"12":-0.23976600678179855,"13":-0.3820554058088417,"14":-0.10307927486348653,"15":0.17877328107877105,"16":-0.11783059213296836}},{"sx":1,"sy":1,"depth":17,"w":{"0":0.25290000114416444,"1":0.2574079373437895,"2":-0.1313771666633487,"3":0.05872780851590927,"4":0.15145937586347522,"5":-0.17362249851914707,"6":-0.243756607625743,"7":-0.2722731966909433,"8":0.04731756871152181,"9":-0.49343152555517394,"10":-0.13736660184583357,"11":-0.04930016161715596,"12":-0.5255587483601208,"13":0.03560174513622785,"14":-0.23139109135545893,"15":0.1800964326760251,"16":0.23897581655233366}},{"sx":1,"sy":1,"depth":17,"w":{"0":0.10251988480336985,"1":0.10657444340662509,"2":-0.12496523092488879,"3":-0.30095459857201295,"4":-0.23796843009354518,"5":-0.24121920537372324,"6":-0.13513742647196944,"7":-0.12980016833631122,"8":-0.07770128400525401,"9":-0.34585809043579446,"10":0.052732343680559145,"11":-0.06222545049171377,"12":-0.10996232359882112,"13":-0.10472126802183626,"14":-0.2750025128052566,"15":0.21531909045211464,"16":0.41902480398325226}},{"sx":1,"sy":1,"depth":17,"w":{"0":-0.3288302859244554,"1":-0.586987484806169,"2":-0.3097697939622322,"3":0.38682428781863837,"4":-0.17609849082005138,"5":-0.2184454591705697,"6":0.48623171061920645,"7":-0.27026761649287157,"8":-0.020588982495606346,"9":-0.5907429405431428,"10":-0.370351303016222,"11":0.01660635381572217,"12":0.15411686888157575,"13":0.22207474093234325,"14":0.5283614481671475,"15":-0.027202839923514122,"16":-0.43923693006868164}},{"sx":1,"sy":1,"depth":17,"w":{"0":-0.15044621026098765,"1":-0.05509715031388884,"2":0.12826654235365553,"3":-0.013803867307228287,"4":-0.5375050319721248,"5":-0.1557691975575964,"6":0.22379622784572573,"7":-0.09534840758848241,"8":-0.4600906678119086,"9":-0.21656353009958115,"10":-0.07352941737108958,"11":0.16526193444635137,"12":0.13897706379631597,"13":-0.0014162657098057765,"14":-0.1871417937362099,"15":0.058020624848034275,"16":-0.0401995768759191}},{"sx":1,"sy":1,"depth":17,"w":{"0":-0.19705042930001457,"1":-0.27376239426060994,"2":0.10266172217601538,"3":-0.031449045590884225,"4":-0.08823922486719657,"5":-0.2504372096363652,"6":0.23404302112115244,"7":0.13500596890996572,"8":0.239069448272027,"9":-0.07238800794365777,"10":0.07510676185292904,"11":-0.23734015772201061,"12":-0.019792241568068834,"13":-0.06100349064489458,"14":0.046859012244043464,"15":-0.17736220133823857,"16":-0.3004447642159866}}],"biases":{"sx":1,"sy":1,"depth":50,"w":{"0":0.09781192805754217,"1":0.09205109132868254,"2":0.10128316686763351,"3":0.09814269232528335,"4":0.1006509195885755,"5":0.09810386985482156,"6":0.09157773925420609,"7":0.09736893322301973,"8":0.09815681207134028,"9":0.09987478605221188,"10":0.1,"11":0.1025743566072691,"12":0.10925991060423192,"13":0.10047669580260817,"14":0.09820848601405602,"15":0.10117627120207853,"16":0.1032274127569826,"17":0.0916615365113172,"18":0.09776372598296418,"19":0.09669184905705873,"20":0.09443739173016838,"21":0.09907534189317596,"22":0.09919329804278944,"23":0.09680633611458192,"24":0.09993576152119411,"25":0.1,"26":0.0955199728966798,"27":0.09915749960448908,"28":0.10208017713726814,"29":0.1023952973719384,"30":0.1006016284224701,"31":0.10193620547201053,"32":0.09953370214052269,"33":0.09963225450363594,"34":0.10415933498889622,"35":0.09992189654983218,"36":0.09851436558632944,"37":0.10667000862996313,"38":0.09928659103481667,"39":0.09962380620658841,"40":0.09979911611826264,"41":0.10070244570921481,"42":0.10671454188626972,"43":0.09672199322281215,"44":0.10748249347405808,"45":0.09634063844252433,"46":0.09972613548867648,"47":0.09190587691797594,"48":0.0995255564009244,"49":0.09768290349599389}}},{"out_depth":50,"out_sx":1,"out_sy":1,"layer_type":"relu"},{"out_depth":50,"out_sx":1,"out_sy":1,"layer_type":"fc","num_inputs":50,"l1_decay_mul":0,"l2_decay_mul":1,"filters":[{"sx":1,"sy":1,"depth":50,"w":{"0":-0.012115883288959219,"1":0.11915285708151122,"2":0.021726592104435435,"3":0.02437648109801742,"4":-0.023524297622095174,"5":0.0451245747452226,"6":-0.02900270401715707,"7":0.11045063217922672,"8":0.10657676577135404,"9":-0.2354969443286204,"10":-0.05878184049601232,"11":-0.09486891548995371,"12":0.19427462445796276,"13":-0.12058320108254574,"14":-0.007099642952385225,"15":0.0055314451433452145,"16":0.05665070247393187,"17":-0.10403426278347136,"18":-0.1744098597219085,"19":0.09580010113964858,"20":-0.23578185793503625,"21":-0.09867489653348921,"22":-0.02837569993258707,"23":-0.14777745215107221,"24":0.11033946146989301,"25":-0.029846813904535908,"26":0.12279191229876373,"27":0.0257440479644578,"28":-0.02542660092499255,"29":0.018053327028022752,"30":0.0903788554050707,"31":0.05909173472264807,"32":0.17571707275577486,"33":-0.12943303284385327,"34":-0.0042803046835279655,"35":-0.09950896861874525,"36":0.2253794076518511,"37":0.09275388421550822,"38":0.05247943246993954,"39":0.14065318370723212,"40":-0.06717271439303742,"41":-0.035035604028338045,"42":0.02661107477856536,"43":0.15874553488516646,"44":-0.05057968261166118,"45":-0.012910011688238606,"46":-0.002834555730411394,"47":0.43682515153656754,"48":0.20496735479182193,"49":-0.06965792615349796}},{"sx":1,"sy":1,"depth":50,"w":{"0":0.09933434366180052,"1":-0.16883087828239357,"2":-0.058708459567851194,"3":-0.238690275674411,"4":0.2129122306527821,"5":0.2816376142969753,"6":0.02780197153103416,"7":0.017082523792055233,"8":0.038718805207112295,"9":0.10662472134060046,"10":-0.31451357927791035,"11":0.07162741832502453,"12":0.361746876448363,"13":-0.009490364493249383,"14":-0.03748953810866707,"15":0.14553134976973436,"16":0.13544236419263428,"17":0.3195632343151529,"18":-0.01982432627933101,"19":0.1568758041152817,"20":-0.11719382496241518,"21":-0.09344777241069405,"22":-0.23150661218239232,"23":-0.04315754946888126,"24":-0.13479898390987735,"25":0.04573135228673375,"26":0.1300935449639556,"27":-0.10897375910519032,"28":0.011895038364687334,"29":-0.16244883071205296,"30":-0.1240195017238299,"31":-0.07937379014878361,"32":0.049584374827506925,"33":0.14802564079261682,"34":0.03612936168937199,"35":-0.4341533197530099,"36":-0.016976005880478748,"37":-0.16868958832425526,"38":0.1555671429211254,"39":0.05465130117012658,"40":-0.11828978587083257,"41":0.023994180157126406,"42":-0.1509098067075688,"43":-0.07620566004789162,"44":-0.17458270456708413,"45":0.04982179674250668,"46":0.004413830416699591,"47":-0.043754380672577295,"48":-0.020336422533219708,"49":-0.214401624050331}},{"sx":1,"sy":1,"depth":50,"w":{"0":-0.01772216529149842,"1":0.051772516157774194,"2":0.011903039973469434,"3":0.08869351973212952,"4":0.01964533716751311,"5":0.07259447242077327,"6":0.02197749866445681,"7":-0.13186312570594458,"8":0.10715716788124545,"9":0.03846270889776665,"10":0.054281698419403786,"11":-0.14841994425338761,"12":0.16185053305064692,"13":-0.10335840500931535,"14":0.08928716688258932,"15":-0.24056456013331678,"16":-0.10041173818128427,"17":0.11269149340777394,"18":-0.0843917905797436,"19":-0.11027743043449781,"20":0.0767528650668552,"21":0.3298214968358164,"22":-0.013014513131878201,"23":-0.06051920460533709,"24":-0.2120948777148935,"25":-0.014510915250748274,"26":-0.1314354035964002,"27":0.22400075868254654,"28":-0.01750729184868914,"29":-0.10615156766584136,"30":0.03110580318759954,"31":-0.15665612034528492,"32":0.07825798266686325,"33":0.046202533797304345,"34":0.25794856480110573,"35":-0.08634223587723798,"36":-0.2914355541033853,"37":0.06574736302080193,"38":-0.1024278484263238,"39":-0.19631679078913378,"40":0.14545315361495592,"41":-0.051830882920137815,"42":-0.030961072127996897,"43":-0.05951253101536234,"44":0.024224054669166294,"45":0.18033110215683032,"46":0.028532640255773886,"47":-0.25405481670129487,"48":0.17861066706881146,"49":-0.20714243708631266}},{"sx":1,"sy":1,"depth":50,"w":{"0":-0.07076422799492045,"1":-0.3653381562491169,"2":-0.14085968258311485,"3":0.016199537505684584,"4":0.05208423785549712,"5":0.3078600325405185,"6":-0.08731624447855993,"7":0.22927242973419015,"8":0.1506465542393318,"9":0.16884140572619388,"10":-0.12447889734668341,"11":-0.06314242979852319,"12":-0.14250898264392528,"13":0.07937669015791923,"14":-0.17295854207878414,"15":-0.2581044482355042,"16":0.04872108338001527,"17":0.23501316843706224,"18":-0.05226123084747228,"19":-0.1677885454312213,"20":-0.0386406345765633,"21":-0.0024315594869221686,"22":-0.002624507153728756,"23":0.0022156404748336985,"24":0.13382596571989855,"25":0.01348654384461713,"26":-0.19819813224028768,"27":-0.24218525101710894,"28":-0.010670920842501852,"29":-0.14410250306611727,"30":0.10979227123468448,"31":-0.1592222094520496,"32":-0.16687201481210906,"33":0.17887765640395706,"34":0.024097855237582354,"35":-0.3992942556505313,"36":0.1642483776033348,"37":0.30893964286951525,"38":0.03648024271410062,"39":-0.22180829570019875,"40":0.015579194916883471,"41":-0.29062459722793876,"42":0.0650201835858794,"43":0.09973094751296202,"44":-0.011485503436697795,"45":-0.02589494220776118,"46":-0.1518662036315116,"47":-0.007813614805025796,"48":0.21878857410077374,"49":0.04876467417276669}},{"sx":1,"sy":1,"depth":50,"w":{"0":0.19668497172150712,"1":0.046309105764727077,"2":-0.24465112803516456,"3":0.28727475858264023,"4":-0.08328897185797626,"5":-0.03324297851971458,"6":-0.11589905334263542,"7":-0.02331073189396292,"8":0.004409038980159593,"9":-0.05395737393632554,"10":-0.29192962280532325,"11":0.10839785453083046,"12":-0.2389114726536081,"13":0.08377521169793352,"14":-0.17770550368240617,"15":0.08436781106838075,"16":-0.15320907172597492,"17":-0.15615782372380657,"18":-0.11678744686976496,"19":-0.2031952363789702,"20":0.24961351584127486,"21":-0.014559691622244181,"22":-0.29001137679651845,"23":0.24239725520145483,"24":0.04995853164801294,"25":0.05010595815417758,"26":-0.10671030797154696,"27":-0.06451060821862449,"28":-0.013676731593411671,"29":-0.001198517971614201,"30":0.00004437188571711946,"31":0.03252688058427999,"32":0.08338946096427542,"33":-0.053854970220180716,"34":-0.06928166728234947,"35":-0.19438497097568994,"36":-0.04307541327625228,"37":0.2821471885072423,"38":-0.015398776683653961,"39":-0.0898857935105426,"40":0.084849655801367,"41":-0.032255788620955586,"42":-0.026729367457694622,"43":0.013379487532127162,"44":-0.11410190317402116,"45":0.12915332386746978,"46":0.08110407465695246,"47":0.16704543300859293,"48":0.1437009875884243,"49":-0.20307590583288315}},{"sx":1,"sy":1,"depth":50,"w":{"0":-0.020763868125947126,"1":-0.04609458805398286,"2":0.0025147340361943173,"3":-0.006042425713948818,"4":0.1367811058672716,"5":0.12556778455163806,"6":-0.004771077149977349,"7":0.1478570763589905,"8":-0.18293807501744597,"9":0.15799871076573954,"10":0.021634443620922643,"11":-0.01865798815529646,"12":-0.10285693059986334,"13":-0.05061590934014718,"14":0.05765155887594916,"15":0.007136477832600848,"16":0.21324523948723417,"17":0.22847810415195718,"18":0.21294747074928552,"19":-0.3269996018288571,"20":0.08452231076547966,"21":-0.06959163569429942,"22":0.005290633074857393,"23":-0.2114585165671449,"24":0.1959523867094085,"25":0.09506893119630622,"26":0.14764795831510177,"27":0.12206002721193927,"28":0.19201284951140576,"29":-0.03587832641435651,"30":0.0670745132203885,"31":-0.21901802517282978,"32":-0.1691597041875625,"33":0.0592499989180975,"34":-0.06553993891325248,"35":-0.23976822675939152,"36":-0.2555157602769097,"37":0.11956115307833487,"38":-0.0793208243480681,"39":-0.05010678180693519,"40":0.04484477742610697,"41":-0.006312406081252417,"42":-0.012109512590778849,"43":0.0018220458011909812,"44":-0.12289658693925876,"45":0.12221934328979364,"46":-0.1471346618806452,"47":-0.20676731470610632,"48":-0.10538999846858568,"49":0.06828281917908445}},{"sx":1,"sy":1,"depth":50,"w":{"0":-0.2725788388983495,"1":-0.044256756373360774,"2":0.10692654015936158,"3":-0.0018040827296482405,"4":-0.14395486842115404,"5":-0.11179612500756035,"6":0.060906465166814,"7":-0.0032771145909741423,"8":-0.014371185216989218,"9":0.13164023906924532,"10":-0.2530063747855767,"11":0.07220711377092867,"12":0.010071913180197666,"13":-0.264303985799981,"14":0.09243974854655185,"15":-0.035401656128313044,"16":-0.0321073037991295,"17":0.2932164543526192,"18":0.0811680811705547,"19":0.15565154189949637,"20":-0.141917854370363,"21":0.18940988009213977,"22":-0.055219935790103446,"23":0.26513738101309064,"24":0.08573149891519286,"25":0.05128996918690327,"26":-0.1394692497613268,"27":-0.14362846850321387,"28":0.11330354746281247,"29":0.237698371380157,"30":-0.032717903081905905,"31":-0.12771707552710093,"32":0.17543243032288175,"33":0.16232464413642067,"34":0.037680296989228756,"35":-0.02649101569074123,"36":-0.14983274602933486,"37":0.09471816260690205,"38":-0.05608561893124731,"39":-0.06979807724181006,"40":0.06379705730099168,"41":0.02585384488791043,"42":-0.0644369271183309,"43":0.17416196786472654,"44":-0.0643454983353295,"45":0.0022016507033780475,"46":-0.2199721403504545,"47":-0.06825692095373846,"48":0.01457035259850311,"49":-0.03257402833209627}},{"sx":1,"sy":1,"depth":50,"w":{"0":0.10657858036977136,"1":-0.11103578623574213,"2":-0.10741843747453142,"3":0.1469658906729895,"4":-0.2101611878374752,"5":0.2314239422595122,"6":-0.005528694558817104,"7":0.02304585645125384,"8":0.03010604109228627,"9":-0.03232388330198586,"10":0.04367882717643334,"11":0.23581771823521455,"12":-0.002900135595639259,"13":-0.18021068281382627,"14":0.06516284830568997,"15":-0.022097412070076452,"16":0.17422237375058294,"17":0.0925963792010044,"18":0.34872051531813236,"19":-0.043008174176813393,"20":0.18176365104194847,"21":-0.08804035310857389,"22":0.08756931901932434,"23":-0.0531458663041976,"24":-0.28337463982723554,"25":0.049255853293541624,"26":-0.021340041752892,"27":0.01775504147684246,"28":-0.02758371479489007,"29":0.11404304615744075,"30":0.017156107917630566,"31":-0.24557016978753932,"32":-0.08845942626145446,"33":0.09583038732314078,"34":0.22485784119361485,"35":-0.050519072621173694,"36":0.11241819285661303,"37":-0.4425440442483939,"38":-0.007490195342662758,"39":0.0368405525429018,"40":-0.23195745087144629,"41":-0.024337470883256957,"42":-0.0375498060233992,"43":0.0008647455814745933,"44":-0.07790734682493276,"45":0.10938179967661758,"46":0.1693252752333187,"47":-0.10726894722957661,"48":-0.10438988224183299,"49":0.10998510258698768}},{"sx":1,"sy":1,"depth":50,"w":{"0":-0.39727633619116753,"1":0.019891171680012427,"2":-0.10959153205735286,"3":0.04731041784969483,"4":0.048241216206472544,"5":-0.13858723986014326,"6":0.05562916423153412,"7":-0.2863300701564177,"8":-0.035961916753758066,"9":-0.1297792893859922,"10":0.13125929585666749,"11":-0.07822350590742512,"12":0.21609458663299316,"13":0.027718462804497048,"14":0.056107558354868504,"15":0.12929630836310638,"16":-0.07856709636507768,"17":-0.10841834108531927,"18":-0.02912882413293938,"19":0.0031943260454907777,"20":-0.13882744975840605,"21":-0.01414861953402603,"22":0.20434170691736286,"23":-0.08276034677483998,"24":-0.20053878901895125,"25":-0.08123576762870749,"26":-0.3026573586609244,"27":-0.0626142663082786,"28":-0.021596701042451018,"29":-0.02670690505255213,"30":-0.10284706885957827,"31":0.2318540700059383,"32":0.09989424448239585,"33":0.18178226364459668,"34":0.07295372929948857,"35":-0.023077969984430714,"36":0.14608101696333847,"37":-0.20143980458711055,"38":0.029052018675662046,"39":-0.015565851067093326,"40":-0.27508380133986,"41":-0.1899943137303294,"42":-0.12001319224029657,"43":0.05803956368963812,"44":0.32591364071308626,"45":0.0064905148493278764,"46":-0.07185402235169634,"47":-0.08547429852371932,"48":0.26973865448227585,"49":-0.3487300134643468}},{"sx":1,"sy":1,"depth":50,"w":{"0":0.02553159091369881,"1":-0.1564204468458117,"2":-0.13311752503771204,"3":-0.023853892710268443,"4":-0.09295773149655893,"5":-0.08884477596023722,"6":0.03769711684924483,"7":-0.0483024058802057,"8":0.2530672987230228,"9":0.009808507382852468,"10":0.12183822206186594,"11":0.07529496689756635,"12":-0.11177767188846748,"13":0.10926125964984766,"14":0.19092743283666153,"15":0.02103346978481648,"16":0.02500618512514995,"17":-0.005317501776177587,"18":-0.10698887677886601,"19":-0.11531698876836126,"20":-0.04598796519292587,"21":0.2210060975840136,"22":-0.08973507159541896,"23":-0.01869246057458382,"24":-0.12273019972936008,"25":0.05437373454571488,"26":0.27361377014511806,"27":0.17625601960878226,"28":-0.2774245828020838,"29":0.06890486500916386,"30":0.06173416954627272,"31":0.0607280767886299,"32":-0.07304607952958553,"33":0.11220091261432832,"34":0.007990489894425485,"35":-0.01177315096731182,"36":-0.06884660813491197,"37":-0.09831655152152442,"38":0.11974998183514529,"39":0.09540182078436772,"40":0.11412195214524061,"41":0.036781619976935825,"42":0.052661442761228805,"43":-0.12093226669864093,"44":0.07177024707261757,"45":-0.12143824382205426,"46":0.06369813998431732,"47":0.1702415532561541,"48":-0.009567643169460434,"49":0.04898483416838834}},{"sx":1,"sy":1,"depth":50,"w":{"0":-0.008445837873948212,"1":-0.10791483720637267,"2":-0.06039164195634139,"3":-0.0742585875878409,"4":-0.17311446422186147,"5":-0.058856119813134995,"6":0.03437652883001042,"7":0.11800950242923146,"8":0.2871575921597152,"9":-0.05625015470810792,"10":0.13511994295987612,"11":0.1941389205994749,"12":0.013192691957424394,"13":-0.2937534489999748,"14":-0.1441658791738213,"15":0.1276617725229538,"16":-0.11299419954698124,"17":0.08401425774162488,"18":0.019685443309274978,"19":0.1419283803616448,"20":0.005019703820941764,"21":0.09260426076962466,"22":0.334234719175534,"23":0.07856777293013971,"24":0.052768191954528004,"25":-0.2168540368504289,"26":0.044397009476023104,"27":-0.1868661936643039,"28":0.2691167888306348,"29":0.10797204061772378,"30":-0.05588457205645761,"31":0.0475888792945057,"32":-0.004319961503303583,"33":-0.2819383288585483,"34":-0.25881166218898866,"35":0.054890380713614476,"36":0.01152660242629011,"37":0.21213559041593386,"38":-0.15253650581989542,"39":0.012772517215824414,"40":0.09174421001073223,"41":0.050341019709682,"42":-0.19940507674084598,"43":0.11035511856933079,"44":-0.05706689387214205,"45":-0.062286363130302565,"46":0.24740442330708412,"47":-0.10423535229689983,"48":0.13691968203484378,"49":0.024892572458493745}},{"sx":1,"sy":1,"depth":50,"w":{"0":0.044195634103935184,"1":0.03356670306068798,"2":0.11166109522310683,"3":-0.2629709417498126,"4":0.065971740183241,"5":-0.10922246995525743,"6":0.1016177697927999,"7":-0.018301836230515362,"8":0.06840899257461194,"9":0.057215628723592746,"10":-0.04496095710831747,"11":0.054418341590092706,"12":0.13385836425484496,"13":-0.0213986618386395,"14":-0.26379326833852995,"15":-0.024280590775309658,"16":-0.03028081638313915,"17":-0.24525948380666454,"18":-0.01810355306364471,"19":0.10283937677850234,"20":-0.017640578336843384,"21":-0.20988212778373294,"22":0.12886943108326596,"23":-0.17254064397342742,"24":0.1018984503898446,"25":-0.10643129960563177,"26":0.06422889772057035,"27":-0.1599209402264168,"28":0.10779498980580252,"29":-0.18604269535938822,"30":0.07417290859388105,"31":0.014339304809498627,"32":-0.061355606669539875,"33":-0.021374893863278333,"34":0.17831480808952288,"35":0.06390056438292395,"36":-0.27144455392353656,"37":-0.08472883742792307,"38":-0.13495293541878636,"39":-0.0018568322422106444,"40":0.02473787645918584,"41":-0.024879867866311457,"42":0.021712078032785395,"43":0.08392977522720056,"44":0.039138229113186436,"45":0.03451321622837628,"46":-0.05313703777678779,"47":-0.1496400055929406,"48":0.06647874757811492,"49":-0.08673343774783553}},{"sx":1,"sy":1,"depth":50,"w":{"0":-0.21502009496975996,"1":-0.11705736881437975,"2":-0.0979786763936914,"3":-0.09414290079339542,"4":-0.06731276636617287,"5":-0.10197428030713684,"6":-0.056788429787885585,"7":-0.004103642608527856,"8":-0.015500392465736713,"9":-0.09315044288084628,"10":-0.09610187938632322,"11":-0.056886095927750444,"12":-0.12967602601766834,"13":-0.11615146740971263,"14":0.10469628168135706,"15":-0.01036773911113873,"16":0.12841877171727883,"17":-0.13638603125092624,"18":-0.22002330568432765,"19":0.018099393460282266,"20":0.1190571476352815,"21":-0.2069144006390497,"22":0.14060052364968625,"23":-0.00924492832358649,"24":-0.049581272037640796,"25":0.09694741740523555,"26":-0.07793877199435005,"27":0.01274382445330696,"28":-0.14956873026624234,"29":-0.032489850499300546,"30":-0.01216650392602144,"31":0.15384599288704032,"32":0.0012411319621624226,"33":0.11329353673255202,"34":0.03147800536427947,"35":0.0011622880726925627,"36":0.050976306704778415,"37":-0.23941482576408268,"38":-0.25829232161934407,"39":0.04279390486884194,"40":-0.05681358381375553,"41":0.1165599344143457,"42":0.026042436243949273,"43":0.07456858836917757,"44":-0.03770132444960014,"45":-0.13180234613713426,"46":0.2278500898847504,"47":-0.02093212114594677,"48":0.03979399690803188,"49":-0.03937266104002591}},{"sx":1,"sy":1,"depth":50,"w":{"0":0.05279360092826269,"1":0.12876696950289085,"2":0.16059010883685945,"3":0.03792098416511566,"4":-0.27979049599523603,"5":-0.3320029560027118,"6":0.06746211051651309,"7":0.08573523450248087,"8":-0.10232387156127823,"9":-0.038423012105944516,"10":0.12573003257996243,"11":0.05976666514880751,"12":-0.07717180651283548,"13":-0.07124518691138294,"14":0.18272658789142804,"15":0.10313872230932965,"16":0.003070052846928293,"17":0.1158095914126542,"18":-0.11686936074661233,"19":-0.30304015216892005,"20":0.17344720510730505,"21":0.014376548712253585,"22":-0.076204535655833,"23":-0.14992737787172375,"24":0.01795548305587968,"25":0.06512482327386286,"26":-0.019493716558358635,"27":-0.2218779212410436,"28":0.04329607463512492,"29":0.01956693526461597,"30":-0.2755470715097654,"31":0.10833616720902262,"32":0.18598523519442298,"33":-0.20173825237467716,"34":0.12414530092392434,"35":-0.005636922051465707,"36":0.14661325614951085,"37":0.01113391500777621,"38":0.05043029294973622,"39":0.06870930761740188,"40":-0.34836952830102275,"41":0.2165349755032651,"42":0.05459870039016599,"43":0.19411265406620873,"44":-0.05655302222248322,"45":0.010971647377676433,"46":-0.057297123384443586,"47":0.04409319940624151,"48":-0.005374035360481279,"49":-0.2297463447272514}},{"sx":1,"sy":1,"depth":50,"w":{"0":0.029919052654988013,"1":-0.08103698080435287,"2":0.04500715040173215,"3":0.25063589719681983,"4":0.16565071467834705,"5":-0.007104091199373226,"6":0.02364955351417051,"7":0.06798195465016416,"8":0.06785723317923034,"9":-0.13747827633916926,"10":-0.1732601607751321,"11":0.06856698813504697,"12":0.07139805170885104,"13":-0.015521326169602721,"14":0.08521562882659352,"15":0.14482357167800453,"16":0.013180921711961719,"17":0.17712870391707716,"18":0.1494300033794629,"19":-0.010375822023297513,"20":-0.026885252688801674,"21":-0.07125234201965154,"22":0.04126552864025723,"23":0.14563597221486896,"24":0.023784838270763903,"25":0.2570592975606646,"26":0.3056275196263881,"27":-0.1990303767227318,"28":-0.12313359346576246,"29":-0.04836767314944706,"30":0.10840063574520133,"31":0.29979438240068645,"32":-0.02250482757955357,"33":0.0006906755526763138,"34":-0.01226667544261619,"35":-0.16365543645346098,"36":0.1302826912303642,"37":0.05678164300749934,"38":-0.11474733407924961,"39":0.10766659455654687,"40":0.042220192588637136,"41":0.03291174278049305,"42":0.025115991653974424,"43":0.21128523758709183,"44":-0.38977169742762935,"45":0.026377451501898377,"46":-0.16971240928792578,"47":-0.1275240988023594,"48":-0.29324124980767613,"49":0.004584546120357735}},{"sx":1,"sy":1,"depth":50,"w":{"0":0.11044347781199446,"1":-0.0514979870997648,"2":0.13432192842454138,"3":0.2553781593565214,"4":-0.007913640902056514,"5":0.042455345483236664,"6":-0.17896527671615853,"7":0.22764598842352574,"8":-0.09734484781512591,"9":-0.049959243220586994,"10":-0.020212017730985,"11":-0.032156625100330266,"12":0.226363214724519,"13":-0.20132816595685926,"14":-0.16902973957784756,"15":0.09109801581263594,"16":-0.006318572117701072,"17":0.5833673301006365,"18":0.08066781073408935,"19":-0.0016825059373479973,"20":0.3276018058253545,"21":0.0035670421148869804,"22":-0.09016396862314631,"23":-0.07857102303346339,"24":0.04952725489116029,"25":0.10634085317673378,"26":0.1329933089857407,"27":0.2824031849804587,"28":-0.04832210739456733,"29":-0.05088454913604085,"30":0.18641918187677958,"31":0.2891493741607278,"32":-0.1976974364270707,"33":-0.2808566509674541,"34":-0.11352544820435008,"35":-0.4303303821910975,"36":0.06525265793148138,"37":-0.03810327825252644,"38":0.1606897038897952,"39":0.17340495083200658,"40":-0.19482200280319417,"41":0.052477141862715924,"42":-0.0025560850627654582,"43":-0.0959854464962008,"44":-0.25516842833575337,"45":0.4097848314250351,"46":0.13908422519609015,"47":0.5603527149781479,"48":0.10500440785187447,"49":0.2829018101686177}},{"sx":1,"sy":1,"depth":50,"w":{"0":0.07741652049405662,"1":0.046291616033625166,"2":0.25517863364997084,"3":0.12780537183553903,"4":-0.05245024015369746,"5":-0.09133577326411865,"6":-0.12081173739193593,"7":0.12774798883286256,"8":0.04693383320385314,"9":0.11522540793641813,"10":-0.1357525056862282,"11":0.03772087299414681,"12":0.29398517892806003,"13":0.17475629591247818,"14":-0.04578920750758207,"15":-0.019863728475850728,"16":-0.05949774756793437,"17":0.18812557434739238,"18":-0.08012385312054034,"19":0.1464920758843647,"20":-0.04923779764757576,"21":-0.22636097669015046,"22":0.11490015872108965,"23":0.05913523606541925,"24":-0.007043996655056505,"25":0.15674254428328024,"26":-0.23823914569926213,"27":-0.2801597986093971,"28":-0.07159602472448387,"29":0.0815740820981883,"30":0.03199851529105948,"31":-0.05415164709073938,"32":-0.12080320454939436,"33":-0.2581035913415689,"34":-0.008563275039724523,"35":-0.04220638999377269,"36":0.16807712994063242,"37":-0.10476252844297738,"38":-0.07321015330143073,"39":0.2109991102630083,"40":0.00023213399669419344,"41":-0.19776336994484658,"42":0.08697567462724225,"43":-0.1670272376682628,"44":0.20107606187405258,"45":0.1324701281414452,"46":-0.05868490536946545,"47":-0.05461750485059146,"48":0.21291839935447004,"49":0.21707556883183018}},{"sx":1,"sy":1,"depth":50,"w":{"0":0.1325237772363978,"1":-0.08303011081976393,"2":0.04326524218536868,"3":0.0051637904755429745,"4":-0.20120582180479352,"5":-0.08948837984475827,"6":-0.05570975746979819,"7":0.08856103202185661,"8":0.2655386769994281,"9":0.02581920081341183,"10":-0.03998217838179189,"11":0.10263117784640838,"12":-0.11949282362449898,"13":0.08563339046047069,"14":-0.1360922158914805,"15":-0.07193000643672845,"16":-0.08812930333227038,"17":-0.17382120594615258,"18":-0.09824380712111085,"19":0.16388872968511659,"20":-0.01471831290980401,"21":-0.12550503545400177,"22":0.07383598286826606,"23":0.05544225500671152,"24":-0.193093150158406,"25":0.1327036252706806,"26":0.24558553742819653,"27":0.04041842946140874,"28":-0.12227661664626636,"29":-0.03188222370782713,"30":-0.03890046097376963,"31":-0.02384328064177058,"32":-0.04542040077339306,"33":-0.1983839882719671,"34":-0.058831418114692606,"35":0.21863586237469648,"36":-0.09513480492752525,"37":-0.2505150127328568,"38":-0.15026583288589665,"39":0.03451065254251,"40":-0.12795055462495114,"41":0.290638971131105,"42":0.10620583148772746,"43":-0.06130905484621107,"44":-0.05919900468298219,"45":-0.13380191848963224,"46":0.11421925048080535,"47":-0.15661282692863715,"48":-0.08700420309038505,"49":-0.008221864872292962}},{"sx":1,"sy":1,"depth":50,"w":{"0":-0.10297027840328002,"1":0.029419827227046766,"2":0.09640727544961966,"3":0.06001627497762408,"4":0.13737014111075221,"5":0.06524975577963088,"6":-0.056696720092657395,"7":0.15065284036818835,"8":-0.050418738559984105,"9":-0.1847622298828643,"10":0.13308143801251548,"11":0.025711709242095857,"12":-0.07713877469451395,"13":0.005732715640433196,"14":0.1647826948114412,"15":0.15550954597460054,"16":0.007828607422425967,"17":-0.0360857537318614,"18":-0.08470925446366151,"19":0.14887114330875703,"20":0.012672015235586968,"21":-0.07810068490652193,"22":0.31849599375334275,"23":-0.11519221985378472,"24":0.03686933408628106,"25":-0.0068133274339516135,"26":0.03508512952190018,"27":0.03296489234584663,"28":-0.07571509436788983,"29":-0.005251749241996455,"30":-0.1848249517609009,"31":-0.11934533469699497,"32":-0.03937796694354573,"33":0.08643233167643422,"34":-0.2207633280721078,"35":0.25609167663330507,"36":-0.12831431876642396,"37":-0.10834094234083298,"38":0.06150757235701053,"39":0.1833476191071657,"40":-0.10150715756595073,"41":-0.008563059566126643,"42":-0.10468107516547567,"43":0.1272686654792186,"44":0.07170838262666888,"45":0.10852609350640975,"46":-0.07220281931437782,"47":0.2830051533503501,"48":0.09563417392811896,"49":-0.13363649534363126}},{"sx":1,"sy":1,"depth":50,"w":{"0":-0.005460446525825092,"1":-0.014747588693187983,"2":-0.13924425340291152,"3":-0.077055706385202,"4":0.047936728608900775,"5":0.03164703638824074,"6":-0.09913259962272918,"7":0.13183028647251738,"8":-0.010123055418431937,"9":0.13380788703437976,"10":-0.06989194244421161,"11":0.20127606118996216,"12":-0.04710999149360926,"13":-0.10769088473222968,"14":-0.060118465249913974,"15":0.21528454953709567,"16":0.009862823214202912,"17":-0.07704147425270376,"18":-0.19568867094502929,"19":-0.1521517220740106,"20":0.09974257578599408,"21":-0.05213417092444643,"22":0.16383102701948152,"23":-0.20880909138089312,"24":0.23925701574192695,"25":-0.1971875945186203,"26":0.2370417455878428,"27":-0.2921300606294503,"28":-0.06672495945023835,"29":0.007117772196334495,"30":-0.10274722718656068,"31":0.12844953186999497,"32":-0.1753080050283111,"33":-0.3326588836345437,"34":0.11760114519750786,"35":0.3368739062421559,"36":0.09015354705658646,"37":-0.025163684732186706,"38":0.17888800134623875,"39":0.10510071651520034,"40":0.047097603635857466,"41":0.08820179815705755,"42":0.03521326403166249,"43":-0.21453147736851563,"44":0.025285027830016384,"45":0.06650265718105358,"46":0.18969014342511833,"47":-0.04181237323185575,"48":0.03461301728124865,"49":0.11709505921906227}},{"sx":1,"sy":1,"depth":50,"w":{"0":-0.20027786642011816,"1":0.11543713014863616,"2":-0.050539026335255796,"3":0.3879862510705,"4":-0.23534307629327952,"5":0.053350597580608984,"6":0.020393956319134585,"7":0.08639072851652589,"8":-0.07154853878145867,"9":0.0371940184614718,"10":0.1798739154159159,"11":-0.02942177053215022,"12":0.09030435272548794,"13":0.17092464198410115,"14":0.01667901166139611,"15":0.002172582136339237,"16":-0.06729464558492325,"17":0.040127691188932176,"18":-0.027974085555438007,"19":0.1869866523613678,"20":0.053467183460388215,"21":-0.15583291879135303,"22":0.0009827306017733226,"23":-0.34920750278715446,"24":0.04574134321719696,"25":0.27016987458492464,"26":-0.016790347509256086,"27":0.0111302415268815,"28":0.0788212684554896,"29":0.07866271799148528,"30":0.14209611728002525,"31":0.1720367991611992,"32":-0.09360632420342076,"33":-0.179786559967204,"34":0.20495726376566753,"35":0.048358606263183196,"36":-0.10067973961167244,"37":-0.0026918953186389908,"38":-0.08263250742386133,"39":-0.0705957850573714,"40":0.05140101025709125,"41":-0.07969881630496219,"42":0.015586069811639873,"43":0.061698029662902755,"44":-0.08079394249538376,"45":0.08631071299439708,"46":0.10887473183231576,"47":-0.0011720909081895283,"48":0.044816553313772815,"49":0.027327725193128306}},{"sx":1,"sy":1,"depth":50,"w":{"0":-0.018310137443941502,"1":-0.6338071251481938,"2":-0.1848052910663237,"3":-0.07459797667797216,"4":0.044170509785498836,"5":-0.14119936089936955,"6":-0.02328766676967521,"7":-0.08881521985703132,"8":0.1824582801706123,"9":0.014156083732817142,"10":0.06915111061145693,"11":0.1440570243976265,"12":0.05408566563772626,"13":0.014247589936561951,"14":0.029738186520128513,"15":-0.13602468424359215,"16":0.058805845811800504,"17":-0.0463763046757852,"18":-0.16210725802731807,"19":0.08277262975517412,"20":-0.035746213861813335,"21":-0.08545525374824703,"22":0.12441384850315643,"23":0.19832910958409017,"24":0.2202628535624294,"25":0.13016764495169486,"26":-0.3939474446034897,"27":0.14827445252126012,"28":-0.03434310148526674,"29":0.4539829113794563,"30":-0.21326554930707667,"31":-0.03980195781849411,"32":0.15579378367049715,"33":-0.06866419475446506,"34":0.21646906511186476,"35":-0.22318645179983287,"36":0.29921434369608846,"37":0.09571408146711104,"38":0.0731264609657457,"39":0.011567488153197391,"40":-0.0003021689729513098,"41":0.19764704631633984,"42":-0.031441697848331195,"43":0.059337905456612015,"44":-0.017027904755879234,"45":-0.24998101854845153,"46":0.1401325538706055,"47":-0.3046634303837558,"48":-0.24107224544768316,"49":0.1558494491381203}},{"sx":1,"sy":1,"depth":50,"w":{"0":0.09621264727636634,"1":-0.06879615309768783,"2":-0.09891041371658818,"3":-0.22878481806290296,"4":-0.016091572263509067,"5":-0.2821031697278363,"6":-0.1303010637240593,"7":0.13107343798530033,"8":0.14067262567027933,"9":0.04065654252137009,"10":0.07722832490102641,"11":0.1852916891205924,"12":0.15731645981529313,"13":-0.06913808871800506,"14":-0.07877891670217275,"15":-0.09737837277340908,"16":-0.1639348941925978,"17":0.20063731181427336,"18":-0.035938308210237455,"19":0.04824408694594045,"20":-0.30468560586760923,"21":0.077525000400763,"22":-0.050516511245410865,"23":-0.16062365122967023,"24":0.008091533588484296,"25":0.18169751489005773,"26":-0.01106085788888453,"27":0.01690751855880972,"28":0.12464473512993743,"29":-0.051542889186538515,"30":0.24158480329986534,"31":-0.41429838792761575,"32":0.0701025980615118,"33":0.07192691302405098,"34":0.12941467227517284,"35":0.03897537123745055,"36":0.049292786783869454,"37":0.142893947988983,"38":-0.000280862371837444,"39":-0.03152278404353511,"40":-0.0038179847061711792,"41":0.014319843856497172,"42":0.21598545398900754,"43":-0.06288474260632551,"44":0.05588864452953684,"45":0.16503100539040907,"46":-0.20152803448217124,"47":-0.5226872724728713,"48":0.0634476165719228,"49":-0.09743277521729428}},{"sx":1,"sy":1,"depth":50,"w":{"0":-0.11501571007687124,"1":-0.08575711029481432,"2":-0.16566831996172493,"3":-0.0013465496448210482,"4":-0.09891349269975583,"5":0.13546264572949762,"6":-0.3291735639881345,"7":-0.318339803185416,"8":-0.0780279040103618,"9":0.033226727683536184,"10":0.09042096637543683,"11":-0.022341497576891387,"12":0.1596606867738252,"13":0.03815612622883737,"14":0.08754794746696168,"15":-0.3110076239630131,"16":0.1809565019668009,"17":-0.08360409625095762,"18":-0.07709521744096612,"19":-0.014455728054483946,"20":0.05547398410626819,"21":0.13441716597596762,"22":-0.12826089405165192,"23":0.0032529874101711186,"24":0.16883437566029372,"25":-0.04950275835931862,"26":0.009138186252048519,"27":0.13173755809258852,"28":0.17541097939244382,"29":-0.135566216373612,"30":0.14313713907202147,"31":0.11889332646932793,"32":-0.07093328352605735,"33":-0.012916209370238924,"34":0.019871532388117917,"35":-0.3559344627147492,"36":0.177512408962107,"37":0.05531177567094374,"38":0.09488132216463906,"39":-0.028383061947704385,"40":0.06037876998826203,"41":-0.11914504151037725,"42":0.06781587562086644,"43":0.08449225158265519,"44":-0.13895668225064647,"45":-0.019628106174258298,"46":0.022971392295691496,"47":-0.07232857862819227,"48":-0.01354159072314831,"49":0.01917700544021499}},{"sx":1,"sy":1,"depth":50,"w":{"0":0.06939221396160952,"1":0.05543286504721375,"2":-0.08261921837162796,"3":0.26452205643329335,"4":-0.0018307735603952265,"5":0.11065041121403642,"6":0.2721027703851274,"7":-0.04696878874939023,"8":-0.30325941476547313,"9":0.14905480968156462,"10":0.09332693382585819,"11":-0.4576929947755077,"12":-0.1551424747404593,"13":0.12420908272353935,"14":-0.15871736142446005,"15":0.25516244997140847,"16":0.1355001721205575,"17":-0.002906958328459059,"18":0.002039903580241005,"19":-0.11032740419341976,"20":-0.16596849779917872,"21":-0.06595813706839615,"22":-0.05675540256779892,"23":-0.08537856700316505,"24":0.05393225068093782,"25":-0.09990302113652509,"26":0.02208172453959649,"27":-0.04650067803450054,"28":-0.06881567297802833,"29":-0.036454996257942386,"30":0.2165846464296871,"31":0.2566880492328069,"32":-0.09169105926593495,"33":-0.03972804170466179,"34":-0.12252964642399862,"35":0.12032041267002201,"36":0.1465266624315211,"37":-0.6338577025057079,"38":-0.0905717459377621,"39":-0.14506733959089993,"40":-0.14075239439003837,"41":-0.3947859490751608,"42":0.15206907189564944,"43":-0.057818055544718076,"44":-0.16259640516747625,"45":0.20018109341203083,"46":-0.1132789307478868,"47":-0.03018593804802684,"48":-0.09204207574547506,"49":0.08532231589137394}},{"sx":1,"sy":1,"depth":50,"w":{"0":-0.022444160499554174,"1":0.05797641365854292,"2":-0.1054128173333669,"3":-0.016624354278182905,"4":0.18305650170139331,"5":0.1408033362246118,"6":0.14130120774747004,"7":0.061984048861713915,"8":0.06275113835081932,"9":0.0392279975752908,"10":0.03325671942031735,"11":0.032437151221925906,"12":0.062095464644552546,"13":0.15146048245051058,"14":-0.08374753440410633,"15":0.08620856672902802,"16":0.1601146606255949,"17":0.07505402785661176,"18":-0.23691555873575276,"19":-0.01903317364798796,"20":0.040736466312970475,"21":0.15280883315203966,"22":-0.0003130178022596744,"23":-0.06487774452933197,"24":-0.1819225050032974,"25":-0.010743027510012895,"26":0.33284608714580566,"27":-0.003327072873600358,"28":0.18687573716809644,"29":0.16525748231930032,"30":-0.03606347508110981,"31":-0.07844780566479086,"32":-0.10908704636879886,"33":-0.058332846113216305,"34":-0.032470610003498705,"35":-0.05526854573887503,"36":-0.00325406169501422,"37":-0.0008669650185314487,"38":-0.03080242221305453,"39":-0.33999719874673506,"40":0.05778498979492542,"41":-0.16218686560378998,"42":0.0007708821089942187,"43":0.026382150593843426,"44":-0.09690901818005915,"45":-0.1082070283187688,"46":0.06475604823979991,"47":0.17133545746149215,"48":-0.15364260902047847,"49":0.012021768414683833}},{"sx":1,"sy":1,"depth":50,"w":{"0":0.22515827328514812,"1":-0.06263263480783782,"2":-0.004644079323330836,"3":-0.08252222607425529,"4":-0.09197774086787203,"5":0.24554161512588987,"6":0.05682511355446028,"7":-0.036831550592487924,"8":0.2587425483329794,"9":0.03336181800403934,"10":-0.03654384892166038,"11":-0.08256211042285623,"12":0.3625020780947232,"13":-0.0201829477625146,"14":0.06726297232989822,"15":0.20353254180964958,"16":-0.11508332080960454,"17":0.3397751370493368,"18":-0.13174901200237094,"19":0.09673249593585458,"20":0.05317549345266954,"21":0.1502091394674842,"22":-0.08099504398749414,"23":0.021462984321108342,"24":-0.016579214613826148,"25":0.12144416388295091,"26":0.035597635587459424,"27":-0.05086151773824085,"28":-0.03770674232537834,"29":0.1164825266219532,"30":-0.0528139113787179,"31":0.19324643131888247,"32":-0.02619854086972747,"33":0.24805908339145868,"34":0.08976623057978336,"35":0.005090555122842948,"36":-0.06402654524685504,"37":-0.11770227656571941,"38":-0.0671312024375217,"39":-0.13360463611350157,"40":-0.09549047116036397,"41":-0.015717720833672302,"42":-0.017124854237463745,"43":-0.010387518566402923,"44":0.04926916839561506,"45":0.08908462253620414,"46":-0.11782729154278691,"47":0.03483672499190733,"48":-0.07334053658837347,"49":-0.010039240973891552}},{"sx":1,"sy":1,"depth":50,"w":{"0":0.05124333890513826,"1":-0.06364119045025561,"2":0.08845159198494429,"3":-0.08906755497832122,"4":0.12992742247827907,"5":0.09995308382949844,"6":-0.18827075185763714,"7":-0.14178663104856243,"8":0.020043725042056277,"9":-0.09698562877359902,"10":-0.21289390313869908,"11":0.11642187496668892,"12":0.167057677524281,"13":-0.24421560811008716,"14":0.1786892313045715,"15":-0.058332747448017995,"16":-0.22576584139862355,"17":0.0896682622465339,"18":0.00035243928216912093,"19":-0.015027784269440613,"20":0.026895824250919926,"21":-0.043033487602408396,"22":0.15023094363145337,"23":-0.0798983987685173,"24":-0.09030952157077289,"25":-0.17372284953873027,"26":-0.06605710886946636,"27":0.02147832118478797,"28":-0.18085179611046354,"29":0.0801582408866048,"30":-0.16833030171854038,"31":-0.10467145613756462,"32":-0.17495559179646542,"33":-0.20784911738856054,"34":0.1234504163564918,"35":0.11502919280276974,"36":-0.030277160961572454,"37":-0.07845214793088238,"38":-0.10989282435896197,"39":0.12158767226344684,"40":-0.08147989854282517,"41":-0.06816609304177103,"42":0.01693463863919168,"43":-0.056768438870061236,"44":-0.04795412397180683,"45":-0.07280208694010118,"46":-0.05249593643709556,"47":0.00873807809695477,"48":-0.1961917028816706,"49":-0.20289712197189294}},{"sx":1,"sy":1,"depth":50,"w":{"0":0.25263486465700863,"1":-0.0509310373459572,"2":0.26807230308117025,"3":0.14349801229399356,"4":-0.1418813580059127,"5":-0.08049628710493749,"6":-0.12626032516928493,"7":0.14059791412711664,"8":0.19765814740614152,"9":-0.06343059162161215,"10":0.012893184499605496,"11":0.13148840837658488,"12":0.15312808690923202,"13":-0.09033944777474717,"14":-0.04326923859943597,"15":-0.08988457482375795,"16":-0.008774847555825359,"17":0.22745494850856715,"18":-0.20883933057488094,"19":0.18848178525321244,"20":0.13203320835039187,"21":0.06595415638355552,"22":0.13231721962159726,"23":-0.04581609408263377,"24":-0.0677341790027586,"25":0.08734139051961544,"26":-0.17996617632685652,"27":-0.029989807985118775,"28":0.09504332725719462,"29":0.039912686042407976,"30":-0.03332126718491069,"31":-0.07346143374958909,"32":0.325296701299521,"33":0.024003203734088433,"34":-0.260274604017833,"35":-0.02080124816924174,"36":0.0493273136264504,"37":0.23892901219972634,"38":0.009615713928724852,"39":-0.10534888563963611,"40":-0.047133463535640865,"41":0.2012926124963164,"42":0.03034314475930014,"43":0.02430899456959916,"44":0.13026931566465108,"45":-0.14353414625850716,"46":0.08965447056619012,"47":0.0297216569173345,"48":0.03698764351163267,"49":0.2874533898093718}},{"sx":1,"sy":1,"depth":50,"w":{"0":0.22662153014363437,"1":-0.02201029156848797,"2":-0.036661726881915206,"3":-0.10500147747990819,"4":0.08679074356231624,"5":0.0781294563978447,"6":-0.15904660822641023,"7":-0.2073421384365443,"8":0.022860630519840597,"9":-0.1247352834630977,"10":-0.18516821263302263,"11":-0.10993520853185963,"12":-0.03629887031778374,"13":0.061089569272018494,"14":0.10812801338739392,"15":-0.1432261166824272,"16":0.043133284199510874,"17":0.01092903789147468,"18":-0.29959319888933533,"19":-0.08323766482844076,"20":-0.09389249556603026,"21":-0.05918102637067915,"22":0.013630229466696737,"23":0.10538231543253242,"24":0.14856239160301735,"25":0.25974434219611053,"26":-0.023801500079225844,"27":0.2018669432806811,"28":0.0028108946675806847,"29":-0.08345047539891608,"30":-0.0495620060812874,"31":-0.17599422240152415,"32":0.275919229460136,"33":0.1546436596912696,"34":-0.20830866163753708,"35":-0.2899277538282819,"36":0.07372477066411802,"37":-0.039483759230121665,"38":0.013113206194957091,"39":-0.11767115151685692,"40":0.16567024485916976,"41":0.10251537952041269,"42":-0.11377389820194705,"43":0.1692788937567376,"44":-0.07726820275932102,"45":-0.15776997611245386,"46":-0.14481842896489264,"47":0.07020659698132636,"48":-0.03726616642394436,"49":0.1697291253226158}},{"sx":1,"sy":1,"depth":50,"w":{"0":-0.18217361032622192,"1":-0.11174270787106994,"2":0.08476969624484433,"3":-0.08402296719934295,"4":0.057680645593620176,"5":-0.12399986922608532,"6":-0.1147170698880156,"7":-0.04317621848503576,"8":0.04293657445009276,"9":0.09730161902280737,"10":-0.030217346787170647,"11":-0.002805634703297526,"12":-0.21429536453016024,"13":0.09566396987567224,"14":-0.0904124607997435,"15":-0.018186950736011936,"16":-0.05122787844285778,"17":-0.06614669509221609,"18":-0.08506772021206226,"19":-0.2015198463250296,"20":0.06828898325696499,"21":-0.13359363404838182,"22":-0.13989542000242883,"23":0.3413870734767056,"24":-0.07296100336818893,"25":0.0037131570901665235,"26":0.15034242793702388,"27":0.2866531465779121,"28":0.08542152135848978,"29":0.12590070304084722,"30":-0.04819232704911959,"31":-0.40059851163066135,"32":0.08403161032580696,"33":-0.03383658564944884,"34":0.09380820525022825,"35":-0.09738993301128858,"36":-0.11864452895220452,"37":-0.17348533201976798,"38":-0.17858934362149173,"39":0.07741379122500558,"40":0.038413075171350564,"41":0.23217398486137433,"42":0.03056586982598732,"43":0.2426843293443571,"44":0.09382906513307726,"45":-0.010143765067384984,"46":0.008723827251872533,"47":-0.1400959405611772,"48":0.09330710049467064,"49":0.022772440976249142}},{"sx":1,"sy":1,"depth":50,"w":{"0":0.22175946718931727,"1":-0.11307851362288968,"2":-0.13681787934810655,"3":0.05217879285790426,"4":-0.004177673178326877,"5":-0.025306178340431126,"6":0.12602243854902812,"7":-0.17372143707226415,"8":0.04925735833595281,"9":-0.06303243935290598,"10":-0.043958800996401315,"11":-0.19249256579456647,"12":-0.02385653747848444,"13":0.16088755842259067,"14":0.2622852019968501,"15":-0.08054040834229705,"16":0.11698988768378735,"17":0.1352418719148821,"18":0.13924189442039872,"19":0.013976993427796213,"20":-0.0919703398362873,"21":-0.0692555320289829,"22":0.17327384739810048,"23":-0.07757542592048225,"24":-0.12776618122179764,"25":-0.1742531177238847,"26":-0.10566161649229296,"27":-0.2280926933684248,"28":0.17415967106594388,"29":-0.1809432352940622,"30":-0.04159392700515955,"31":-0.08369355608031026,"32":-0.19574766733994758,"33":0.011096492144922884,"34":0.07446453855085157,"35":-0.08183803342708001,"36":-0.13315314092173836,"37":-0.03405856967368405,"38":0.046279713772554694,"39":0.14020858741576692,"40":0.09579903568283886,"41":0.049952569321174846,"42":0.34224431758225626,"43":-0.03074353726270652,"44":0.002019438983866194,"45":-0.12930515229591538,"46":-0.050649218385009596,"47":-0.01600041030952274,"48":-0.1604464164257389,"49":-0.12294481980832535}},{"sx":1,"sy":1,"depth":50,"w":{"0":-0.0527753036068961,"1":-0.025732828037279814,"2":0.19863460208234796,"3":-0.13329626196746147,"4":0.10282427742175962,"5":-0.012564939906513648,"6":0.21867468990942976,"7":0.028769804038299,"8":-0.11354845544637865,"9":0.3156508700874964,"10":0.11543795179993781,"11":-0.29844121623973524,"12":-0.4028662262543756,"13":-0.02087163534861527,"14":0.08715616185827209,"15":-0.12549380727671502,"16":0.1342222615670075,"17":-0.012141160242668673,"18":0.2415617420277807,"19":-0.17231315404052916,"20":-0.10925885118552997,"21":0.17646513655864085,"22":0.06684004336076024,"23":0.015437112863067566,"24":0.1373610222524901,"25":-0.06614180371820885,"26":0.019400658807335325,"27":0.11876042310531547,"28":-0.15132865952601726,"29":-0.10283656242791082,"30":0.2898172622176589,"31":0.025904539221253672,"32":0.014939343239865437,"33":0.11741318874744591,"34":0.11840906355382466,"35":0.11262047785796019,"36":-0.16275865204888568,"37":-0.3379569377379535,"38":-0.33800114416833704,"39":0.08373513524017337,"40":0.08440060133622362,"41":-0.10647925492567228,"42":-0.24114649538781657,"43":-0.03318813624494607,"44":-0.16481748804549093,"45":0.10292570349112488,"46":0.0588735153010024,"47":0.2658391919782462,"48":-0.17903669546754283,"49":0.0074873433422591755}},{"sx":1,"sy":1,"depth":50,"w":{"0":0.1551958560753918,"1":-0.0648116418046532,"2":-0.2172716553571199,"3":0.23405146040615862,"4":-0.12296545506889771,"5":-0.11331390537148675,"6":0.035306067532787686,"7":0.0939428278976273,"8":-0.32391359155788635,"9":-0.02499262976059871,"10":-0.08649240231489376,"11":0.07586738804214081,"12":-0.42458368583021056,"13":0.31428930063279037,"14":-0.08412617742802717,"15":-0.0886506375040545,"16":-0.0013029651703382807,"17":0.06942695377516676,"18":-0.14833565667078424,"19":-0.07201340802612384,"20":0.0724881741365178,"21":0.11972226637259531,"22":0.12856756584875528,"23":-0.017710002328142897,"24":-0.174762018574601,"25":0.11789102718007724,"26":-0.22255697369187255,"27":0.14605460530547076,"28":-0.14145922813105388,"29":0.05145723941758593,"30":-0.2550728331154701,"31":0.09081631818575117,"32":-0.11513283469780214,"33":0.1552091012414152,"34":0.09388714794189776,"35":0.18939000660782868,"36":-0.17866900866629742,"37":-0.09258232990053322,"38":0.027726466347044766,"39":-0.06236616719573161,"40":-0.17490841414741032,"41":-0.1645826769160633,"42":0.14087653701681638,"43":-0.10703523905482631,"44":-0.10353930264700216,"45":-0.16951796303908523,"46":-0.19100805526111317,"47":-0.015282786372501432,"48":-0.07569509214109099,"49":0.20268264519867948}},{"sx":1,"sy":1,"depth":50,"w":{"0":0.028670698778966167,"1":-0.13744081771193487,"2":-0.12167046897562045,"3":-0.2499094938608658,"4":-0.1293856497376769,"5":-0.07516067892992638,"6":0.1617100833472316,"7":-0.22144060835553364,"8":0.18391933399002966,"9":0.10284173698579256,"10":-0.0020251480795162712,"11":0.07617567974209703,"12":-0.025371851646815696,"13":0.09570686176912555,"14":0.07514053445646124,"15":0.04770602223634642,"16":0.248378555858394,"17":-0.08849621144473235,"18":-0.07079702624051125,"19":-0.02334089801139991,"20":0.05316551974959916,"21":-0.08870284345388353,"22":0.10987192507698586,"23":0.4076240399540313,"24":-0.25078377613416336,"25":-0.12443835246768357,"26":-0.09788216532567648,"27":0.05718963346115203,"28":0.03587810521514311,"29":0.09242361298574525,"30":-0.03845966233247227,"31":0.2279359326721382,"32":0.28237876102316817,"33":0.09292887439628392,"34":0.04598889716940218,"35":-0.06622127391254606,"36":-0.25594191581351095,"37":0.021870034689259493,"38":-0.12254724137496296,"39":-0.16485154785392683,"40":0.20222077871210062,"41":-0.1101534334628191,"42":0.07885809119002962,"43":-0.30019860670861537,"44":0.001000109546773495,"45":0.09459042912675297,"46":-0.3013158416775647,"47":-0.15408770706403446,"48":0.03508654716621154,"49":0.2528555966588059}},{"sx":1,"sy":1,"depth":50,"w":{"0":-0.12861864872935397,"1":0.21601593476626615,"2":-0.1589712581558217,"3":-0.1640124089017654,"4":-0.3036452382989905,"5":-0.10013446013113819,"6":-0.19608513953123397,"7":0.09632454403127011,"8":0.12055455064291955,"9":-0.18557073175955718,"10":0.13838509544892758,"11":0.22608417885562354,"12":-0.131500169491856,"13":-0.05404873104494372,"14":-0.2310480467595797,"15":0.32463414098318316,"16":-0.18645909077660083,"17":0.07438618996023022,"18":0.04472755717202887,"19":0.07003777863498835,"20":-0.02006615772328088,"21":-0.24425059621669445,"22":-0.044826762607076624,"23":-0.05414096824692655,"24":-0.1743712223411142,"25":-0.03293094291288104,"26":0.2163765907957295,"27":-0.09809092004947081,"28":-0.14862614614846273,"29":0.12693253527381987,"30":0.05518445668223984,"31":0.02984410647296962,"32":-0.07363518906696988,"33":0.0748136427789724,"34":-0.18413603787407215,"35":-0.23134323039152,"36":0.055410847880682845,"37":-0.07474107410900585,"38":0.11963743189099399,"39":0.0760390107898121,"40":-0.2690316373848112,"41":0.045242038601087976,"42":-0.06772650614382221,"43":0.08817369280998896,"44":0.02559440391355566,"45":0.2609966091210451,"46":0.03975256004135548,"47":0.08590323280756235,"48":0.11874097587584002,"49":0.028702406872841334}},{"sx":1,"sy":1,"depth":50,"w":{"0":0.025741700262666863,"1":0.16185275019879508,"2":-0.20277252000410342,"3":0.03370727551742317,"4":-0.11861941895319636,"5":0.29019619210569714,"6":-0.019468652843630405,"7":-0.17156934583501193,"8":-0.11189969179519108,"9":0.1293975937263787,"10":-0.09217554685961171,"11":0.014989119433328894,"12":0.060264556792611675,"13":-0.12190880732592736,"14":-0.0018669572888496508,"15":0.05381368456730768,"16":0.23957006840320674,"17":-0.01591559866195839,"18":0.12412390995386156,"19":-0.14652787673393916,"20":0.09945346456357516,"21":0.19423909322805633,"22":0.003060160910935975,"23":-0.20270278003626716,"24":-0.36993306016566563,"25":0.013173053470069947,"26":-0.009698526437846161,"27":0.033643852754590024,"28":-0.029623128016980232,"29":0.12851249550630867,"30":-0.019215964119719646,"31":-0.12180281756493896,"32":0.13834854159153448,"33":0.11056666684670899,"34":0.17663509703384048,"35":0.09855325927883586,"36":-0.18005750362049114,"37":-0.10605842706196486,"38":0.05595181163839876,"39":0.053156536962198284,"40":0.19098519173485917,"41":-0.02711607948227146,"42":0.14551667831660514,"43":-0.05824859782250169,"44":0.1274606376327519,"45":-0.24801926726025905,"46":-0.07540012311506425,"47":0.0764492765699726,"48":-0.09519497523033343,"49":0.12870708984885418}},{"sx":1,"sy":1,"depth":50,"w":{"0":-0.1304643717319831,"1":0.06459634246700051,"2":0.029297853209828063,"3":-0.0025573711633595274,"4":-0.04094316139975595,"5":-0.04353476846321654,"6":0.008092589386084148,"7":0.09448869988796335,"8":0.1213854500552487,"9":-0.0046366859774741856,"10":-0.07408363622381733,"11":-0.04280517102923684,"12":-0.024617124049090274,"13":0.022253984059639433,"14":0.15653173220503014,"15":-0.14316641621865359,"16":-0.025419734412081795,"17":-0.2510105123516468,"18":-0.026227016178210896,"19":-0.062071351304019626,"20":0.055331650114288616,"21":0.14757782078769738,"22":0.20304619212838632,"23":-0.08145441078477528,"24":0.05575920111177108,"25":0.044089233582492435,"26":-0.06486308257194455,"27":0.3082148295034663,"28":-0.011528121881645844,"29":0.16470915556285892,"30":-0.03936820676143632,"31":0.0406585049187232,"32":0.004127764879136271,"33":-0.08846005130441,"34":-0.10641205369493024,"35":-0.09364926415831458,"36":0.12032196118752984,"37":0.03975216962344443,"38":0.09279570252036619,"39":-0.00124883947844795,"40":0.18283227814014025,"41":-0.11610323692694549,"42":-0.04407563411253514,"43":0.0016071719828828766,"44":-0.04329724129566111,"45":-0.2630196721336278,"46":-0.011241484306283427,"47":0.2174267688530369,"48":0.15357177938578712,"49":-0.025238655185796967}},{"sx":1,"sy":1,"depth":50,"w":{"0":0.14081571208394814,"1":0.11143968547126203,"2":-0.08233430677247705,"3":-0.2551473854622327,"4":0.11717350024979624,"5":-0.049523816815619244,"6":-0.13773119675501014,"7":0.17527466936294472,"8":0.06585669904787206,"9":0.3463029864238233,"10":0.2585236474718603,"11":-0.13483799348359618,"12":0.053068825112025195,"13":-0.0015727193555188537,"14":0.09781583621078685,"15":0.16162363913336025,"16":-0.11516650141482976,"17":0.04197733832335377,"18":0.10347928225646827,"19":-0.1560782508938402,"20":0.22305085967878213,"21":-0.06923548182762572,"22":0.07113689271461714,"23":-0.17103509245703133,"24":-0.0022889776976759155,"25":-0.10644622466997411,"26":-0.0015042627273664842,"27":0.21634979792162715,"28":-0.12010490673530275,"29":-0.08781808977447814,"30":-0.08689343547248246,"31":0.027193493486206373,"32":-0.1721671711194891,"33":0.2969900703972549,"34":0.1138281468947155,"35":0.24741274951253628,"36":0.021354325219637538,"37":0.006856010130084921,"38":-0.2102167703305744,"39":-0.044847009929746454,"40":-0.03779857185298254,"41":0.02727223892296328,"42":0.03827822438755977,"43":-0.32955309951398587,"44":0.0379751325995057,"45":-0.04028333907049519,"46":-0.24468506065405024,"47":-0.25723455678742596,"48":-0.011119728459086481,"49":0.1135207629043832}},{"sx":1,"sy":1,"depth":50,"w":{"0":-0.03797707699799645,"1":-0.22414110623266226,"2":0.07410194981071988,"3":0.08441715753639023,"4":0.028833042231334483,"5":0.1239534589929273,"6":-0.1436020582956334,"7":-0.08232946578429812,"8":-0.23602969568897214,"9":0.24322912374235559,"10":0.056076372186360524,"11":0.22001012409492077,"12":-0.1718416887773009,"13":0.1469533157081796,"14":-0.003013743223117658,"15":0.2224040009778614,"16":0.12564038401285832,"17":0.16686281363256508,"18":-0.03906823848077095,"19":0.09804783156670846,"20":0.18863101383582137,"21":0.17671965221502284,"22":-0.01613023434566488,"23":0.16262655191902778,"24":0.14175953789521775,"25":0.014314062521685775,"26":-0.09867099236705872,"27":0.016542015506363528,"28":0.19715736204381215,"29":-0.04056876094405048,"30":0.04724061629523963,"31":0.05744691267326171,"32":-0.0736152882773147,"33":0.023484435381938677,"34":-0.015776421969637865,"35":-0.06925519746928915,"36":0.1157744064310099,"37":-0.08662422289662992,"38":-0.048256480842080215,"39":0.221389866352033,"40":0.20017134224243985,"41":-0.31777755725199835,"42":0.024131333596914932,"43":0.10212428495345413,"44":-0.14944104732888447,"45":-0.15126671910315434,"46":-0.07846519234977302,"47":0.1829559887493279,"48":-0.06387255514918613,"49":0.09585517968373931}},{"sx":1,"sy":1,"depth":50,"w":{"0":0.05719896202945683,"1":-0.12385708569023658,"2":-0.09021163216861018,"3":-0.12731289158132716,"4":-0.05664710176446401,"5":0.2004782790969504,"6":-0.019535945830553892,"7":0.1577217319842519,"8":0.14526610341360746,"9":-0.07806587733030225,"10":-0.15429846269596323,"11":-0.033571901887885336,"12":0.042037019387993146,"13":0.13634588293320019,"14":0.0731273586522015,"15":-0.17114108094931663,"16":0.10934585853810624,"17":0.013586019978234965,"18":-0.07915162793059724,"19":0.05491126482821501,"20":-0.1420566128104875,"21":0.20159700204935124,"22":-0.016982298250156177,"23":0.03560026800856852,"24":0.12910393005130863,"25":0.13887732423916296,"26":-0.24402717456353762,"27":0.11703724430293697,"28":0.045150559195080764,"29":-0.17606239781228614,"30":0.0035480267481259754,"31":0.0038690330901747613,"32":-0.11217051493174025,"33":0.14446278902548268,"34":-0.03205890107469855,"35":-0.024294539312475383,"36":0.0421528787131571,"37":0.024114591436244386,"38":-0.32470884474026385,"39":-0.09697797730701006,"40":0.40685929206936944,"41":-0.012770304041711289,"42":0.10129808647146434,"43":0.19915510957700377,"44":-0.15359845264243688,"45":0.19886235140227346,"46":0.03417732411857829,"47":0.021438450245569025,"48":-0.2064484559292172,"49":-0.044987032685382844}},{"sx":1,"sy":1,"depth":50,"w":{"0":0.06162846786007647,"1":0.1438362718751988,"2":0.300236137999024,"3":-0.010618360356451634,"4":-0.05692587633161466,"5":0.49746561242913073,"6":0.33728382916457567,"7":-0.25635203510299703,"8":0.13703004654442752,"9":-0.06511832884955739,"10":-0.08384130702783918,"11":-0.0636194628704395,"12":-0.40036385524468815,"13":-0.050305456079002546,"14":0.24640724871793174,"15":0.0690946906095476,"16":0.4078413586283657,"17":0.08904164062763809,"18":0.01793878834248306,"19":-0.04367698996027814,"20":-0.45065051997219985,"21":0.09907198025343364,"22":0.11973299811503002,"23":0.170132720181568,"24":-0.005485467343661522,"25":0.06751264136137149,"26":-0.01660447087070108,"27":-0.0871555608121107,"28":0.0004582542486837105,"29":0.12940151683315565,"30":0.10724307197623816,"31":0.025897813719019423,"32":0.18558598888798072,"33":0.24210301005952878,"34":0.08038169286214322,"35":-0.2083408974611442,"36":-0.05435047313919868,"37":-0.87403809058541,"38":-0.34735901119467527,"39":0.4258245102897345,"40":-0.19148275114256186,"41":-0.10621516975809218,"42":0.0049100470754838066,"43":0.07656550612123096,"44":-0.2380835575642858,"45":0.010295684237287463,"46":-0.0159439894968592,"47":0.21921660734451884,"48":-0.11441929194270323,"49":-0.16612818185845632}},{"sx":1,"sy":1,"depth":50,"w":{"0":-0.02485281754504902,"1":-0.5891693601369306,"2":-0.06899000961704967,"3":0.057418040833122276,"4":0.07466558067134975,"5":0.5022515373487751,"6":-0.10447271527652356,"7":0.5152586718304913,"8":0.3017552203922209,"9":0.1074439988212154,"10":-0.09463824365815786,"11":0.05303844376847712,"12":-0.1745618281524309,"13":0.09864220539766408,"14":-0.04663189961749358,"15":-0.03387039423227522,"16":-0.05700801410385806,"17":0.36244623871360293,"18":-0.1782138383760882,"19":0.04199336645916613,"20":-0.054556761620367114,"21":-0.08701608841880992,"22":-0.18788511817250178,"23":0.0868515224436453,"24":-0.19624403731929754,"25":-0.06099149498909468,"26":-0.2465671529058636,"27":0.028620867645917515,"28":0.007967717892931903,"29":0.007992877139696857,"30":0.21315123152513973,"31":0.06360387595100606,"32":-0.057326694176324584,"33":-0.0008991035232613081,"34":-0.0034533968603495876,"35":-0.1978478321034661,"36":0.05486579142287663,"37":0.25098777338147454,"38":0.07781796657117288,"39":-0.03180021404455392,"40":0.01948481250017204,"41":0.03724701951286998,"42":0.15841869656802296,"43":0.04392279201834892,"44":-0.16529345909542256,"45":-0.2626292919956641,"46":-0.21224698549371446,"47":0.3811664176034663,"48":-0.13527792916569,"49":0.03531500009249366}},{"sx":1,"sy":1,"depth":50,"w":{"0":-0.08522927136346933,"1":0.1486905654482289,"2":-0.12770484995486203,"3":0.1101117647682897,"4":0.12198365793580478,"5":0.03983557784904153,"6":0.03367741933057066,"7":-0.11769752027912223,"8":0.0276049060873391,"9":0.18341142568489882,"10":0.1908445122093203,"11":-0.022509102615479847,"12":-0.06303021826641297,"13":-0.14376304739843201,"14":0.08969072652215113,"15":0.028732093160370415,"16":0.007074152989135565,"17":-0.07505103185086154,"18":0.15013304268742836,"19":-0.10037176564624432,"20":-0.2411425462408027,"21":-0.2299340304418596,"22":0.20360012769967842,"23":-0.035293603930566936,"24":0.026390016918695927,"25":-0.1278213507649451,"26":-0.16232986564940594,"27":-0.11886223776895895,"28":0.18191998278552116,"29":0.23465277922681851,"30":0.025375588492876834,"31":0.03079646758341974,"32":-0.1641385166362548,"33":0.18731381038161382,"34":-0.20421300082538743,"35":-0.0473953338324337,"36":-0.23494993495588568,"37":0.12402058293837649,"38":-0.15849393902093667,"39":0.011516795071821155,"40":-0.11278271641398928,"41":0.03966832336602298,"42":0.08124977976375196,"43":-0.07718636725269448,"44":0.0979127923655891,"45":0.08459491275443261,"46":0.08980230003330733,"47":-0.35564901323259573,"48":0.1855203552818163,"49":-0.0568109482954678}},{"sx":1,"sy":1,"depth":50,"w":{"0":-0.04336486632246733,"1":-0.11432012450893866,"2":0.07416053044844137,"3":-0.19713132364488103,"4":0.06784658578341218,"5":-0.1595245182726788,"6":0.17792962323071848,"7":0.16673326638226477,"8":0.02867224060520698,"9":-0.020184017422045657,"10":0.04071508409609869,"11":0.07180193596037517,"12":-0.4125724247541183,"13":-0.10837228999820504,"14":0.03984076470162016,"15":0.0937515037314015,"16":0.12655721632156577,"17":0.24408558163981586,"18":-0.08311707812285712,"19":-0.06360076330895802,"20":0.3289541840297431,"21":0.35362256870191233,"22":0.031503592436526485,"23":0.20227449719233456,"24":-0.20804169738374265,"25":-0.26881504411836354,"26":0.02116909441559047,"27":0.41468389552854884,"28":0.009557080390251648,"29":0.0092884203024985,"30":-0.16421491977303346,"31":0.14762641262475862,"32":0.015916099334533713,"33":0.00025846774599258445,"34":-0.12101566291602138,"35":0.034224365094759256,"36":0.051784270137644126,"37":-0.10934300067707439,"38":-0.23076287346536034,"39":0.13070065506697465,"40":-0.09174009920874793,"41":0.0742772218603445,"42":-0.28167581790272245,"43":0.21239574658302796,"44":-0.13608261462769639,"45":0.048929427339481565,"46":-0.0799796007756557,"47":0.4856475015867719,"48":0.20738992503841655,"49":0.11046298381326093}},{"sx":1,"sy":1,"depth":50,"w":{"0":-0.009575193172950037,"1":-0.06787461909979764,"2":-0.18865002677752463,"3":0.0198541346194536,"4":0.06131552443021767,"5":0.009793279222818327,"6":-0.2485013245403719,"7":-0.18717674044428573,"8":-0.09770306089645737,"9":0.03908089997572488,"10":-0.015019523525724904,"11":0.23074728679122938,"12":-0.3355479695504854,"13":-0.09088695031845614,"14":-0.1262309033067038,"15":0.0022653279542652516,"16":0.06370795790062374,"17":-0.12064620416721765,"18":0.1372706909456112,"19":0.2039253322886943,"20":0.1677259448582978,"21":-0.02312475506255474,"22":0.025039578599232556,"23":-0.10718575587444147,"24":-0.1876563563026454,"25":0.0230871185159082,"26":-0.009506903322934855,"27":-0.02098986667911503,"28":-0.06411281230538725,"29":-0.14323046236046227,"30":0.10582490767661927,"31":0.30443379560759837,"32":-0.2306898550338198,"33":-0.06945763946654435,"34":-0.1558442399164926,"35":-0.22783065487119278,"36":-0.06877317095147474,"37":0.03606821422969391,"38":0.028855359159339445,"39":0.2175084716142895,"40":-0.09323655195841764,"41":-0.04273217000525943,"42":0.024855649104433924,"43":-0.020768255001210358,"44":-0.1138526435976323,"45":-0.02219898547570359,"46":-0.08933177682832633,"47":0.1917637577075748,"48":0.05284894705423852,"49":0.12470367834326347}},{"sx":1,"sy":1,"depth":50,"w":{"0":-0.032420072003302054,"1":-0.02956596708559674,"2":-0.15591898022174222,"3":0.055473045980839346,"4":0.0824070411095528,"5":0.12091969843238358,"6":0.022178761532821376,"7":-0.2204814959861093,"8":-0.22032489613360468,"9":0.056521158272366416,"10":0.10877151822558527,"11":0.11844937083276957,"12":0.11684919381879084,"13":-0.20312202688206116,"14":-0.23844918866391482,"15":-0.13983675449677138,"16":0.12356682620418696,"17":-0.11126696744049407,"18":-0.09673428577659955,"19":-0.13136958933593537,"20":-0.09781464048664436,"21":-0.1273717233911035,"22":-0.012921105502958686,"23":0.04904599667081381,"24":0.1610018171838808,"25":-0.016721519633329157,"26":-0.02655264405700924,"27":0.09778423920912759,"28":0.08333138302527544,"29":0.24300383788860497,"30":-0.06716983646982264,"31":0.03133175845565286,"32":-0.03272490936881211,"33":-0.054036974097704825,"34":-0.038752091628801805,"35":0.025456554226876607,"36":-0.11893980757514486,"37":0.011008755863586272,"38":-0.13299441597601927,"39":-0.02081951929567052,"40":-0.09612033994858307,"41":-0.1097736099829777,"42":-0.26008376032720226,"43":0.021232692600050056,"44":0.019361196857929176,"45":-0.1390513584159502,"46":-0.026378004691064844,"47":0.03972504770266573,"48":-0.005354533548767076,"49":0.0197305873102304}},{"sx":1,"sy":1,"depth":50,"w":{"0":0.08840820210292932,"1":0.021994632156206465,"2":0.0012884161140003484,"3":-0.06255967348680377,"4":-0.0456442871300703,"5":-0.09805652033667635,"6":-0.002315556474171075,"7":0.13930924677682732,"8":0.045994298399295336,"9":-0.13839248943856855,"10":0.07853629853198438,"11":0.007673224196919986,"12":-0.23252873049338427,"13":0.034631682327120494,"14":0.28228578776752417,"15":-0.04236591470610419,"16":-0.06043250249474899,"17":-0.01898100043525943,"18":-0.11915580671608204,"19":0.0638798111393452,"20":-0.2258728583265478,"21":-0.0367846987217553,"22":-0.004507648023751887,"23":0.3818547969482483,"24":0.017910484123871005,"25":-0.02398934159621271,"26":-0.18888466396049047,"27":0.025053142318356262,"28":0.21247821427047525,"29":0.315726957254304,"30":0.19166728548895912,"31":-0.12587968187199985,"32":-0.1742537395108145,"33":0.17341905857886078,"34":-0.07328967841425257,"35":-0.21853328837629032,"36":-0.08929992519848329,"37":0.011677809000976357,"38":0.1207326913889917,"39":-0.07270446887689098,"40":0.010060000780060195,"41":0.3114909050257349,"42":0.07381679713854744,"43":-0.05521720264801072,"44":-0.0696592688345876,"45":-0.17067488894684107,"46":0.01684113386889897,"47":0.16208182561712622,"48":0.06599215908650737,"49":0.05365069092047555}},{"sx":1,"sy":1,"depth":50,"w":{"0":-0.010017638511599982,"1":-0.04197062378140615,"2":0.12652932447935847,"3":-0.26704319416763106,"4":0.004784775398161232,"5":0.2579603237575039,"6":0.23773893888957254,"7":0.1431807524493268,"8":0.18814503453180192,"9":-0.2598568135061043,"10":-0.14400560944089097,"11":-0.014099210582715177,"12":0.15057044729844246,"13":0.04134583599406346,"14":0.15255288058825614,"15":0.02772212970441786,"16":0.11069426433920498,"17":-0.10891854163392634,"18":0.16445457254289153,"19":0.09820438860913859,"20":-0.23036028502609146,"21":-0.17270765316713416,"22":-0.11152496955234875,"23":0.1798521048365705,"24":-0.1324245649950285,"25":0.04656136806989736,"26":-0.0735915768299021,"27":-0.06894809305311513,"28":-0.05522050144065434,"29":-0.09626389671418366,"30":-0.05997687246018057,"31":0.03920500211559319,"32":0.10882492810494898,"33":-0.48075689430996277,"34":0.30361491217390024,"35":-0.1007881315749755,"36":-0.023518151772260364,"37":-0.13374109019056962,"38":-0.0515200894469092,"39":0.1279896083810987,"40":-0.12703623973610367,"41":-0.16601944401047722,"42":0.08615193404703321,"43":-0.009006536755655341,"44":-0.07214181912520959,"45":-0.06076979368480722,"46":-0.10146628193095639,"47":-0.06159001520975696,"48":0.04154543598357938,"49":0.02203035654482111}},{"sx":1,"sy":1,"depth":50,"w":{"0":-0.17522865234753535,"1":0.010199022764539356,"2":0.22858132762277947,"3":0.060841276131840476,"4":0.17716629258374428,"5":-0.009657241525395979,"6":-0.12823440929478455,"7":0.025210291661743687,"8":-0.07644550308767069,"9":0.0065879141618750935,"10":0.030910198169200525,"11":0.023481158952141926,"12":0.09451114465320766,"13":0.040195701857713866,"14":-0.08592900726299856,"15":-0.09521976153937664,"16":0.05291295264314281,"17":0.2158664420395814,"18":-0.33987741931217863,"19":0.022334388769649584,"20":0.11893198158445399,"21":-0.000013310060393005612,"22":-0.16881211525213935,"23":-0.13629740832850198,"24":0.019777168887202816,"25":0.09184952221737486,"26":0.021826958635220335,"27":-0.16921507387511217,"28":0.011933467849216813,"29":-0.06783670820135272,"30":-0.11613493236062677,"31":-0.013566791155046155,"32":0.22589211728789987,"33":-0.050048577942920065,"34":-0.22286560547486642,"35":-0.26398395138192143,"36":0.08325213902266537,"37":0.11467140493929465,"38":-0.07674510323902094,"39":-0.04506191824646806,"40":-0.13895197755974711,"41":-0.08241776599398275,"42":-0.16116689702098352,"43":0.2439504795062026,"44":0.06430862526612721,"45":-0.0009819373671334465,"46":0.06637190682745218,"47":0.06628503647707547,"48":0.026421638927438883,"49":-0.12448334351423841}}],"biases":{"sx":1,"sy":1,"depth":50,"w":{"0":0.10896700833715105,"1":0.09276117370086395,"2":0.10620265954952149,"3":0.093923550245732,"4":0.09955769199652569,"5":0.09680493742656252,"6":0.09623954354346627,"7":0.10004203984566507,"8":0.10590841435285979,"9":0.0986901146699789,"10":0.10187928887717423,"11":0.10510803034119286,"12":0.1,"13":0.1000398360029869,"14":0.09814754855018187,"15":0.09842946489548994,"16":0.10441599346701579,"17":0.09903210606566332,"18":0.09253333029493536,"19":0.1037550163801006,"20":0.09817690686849684,"21":0.09911026743987736,"22":0.10495097299192012,"23":0.09728923186627898,"24":0.0911057814186934,"25":0.09796064371367441,"26":0.0923862631556233,"27":0.10064358193378545,"28":0.09695724015575086,"29":0.10009496722545239,"30":0.09944703459626963,"31":0.10170593502147632,"32":0.09465505100974156,"33":0.09869103544104456,"34":0.09962939817032615,"35":0.09978585623234479,"36":0.11390192556335843,"37":0.105756295995303,"38":0.09771305475603498,"39":0.09960485700884471,"40":0.09961081194228417,"41":0.09190180044496225,"42":0.0964034304872636,"43":0.10189377375548973,"44":0.09516691447369659,"45":0.09997768880710273,"46":0.09921672855887356,"47":0.09982195052594217,"48":0.1028929894021822,"49":0.09767486791479374}}},{"out_depth":50,"out_sx":1,"out_sy":1,"layer_type":"relu"},{"out_depth":3,"out_sx":1,"out_sy":1,"layer_type":"fc","num_inputs":50,"l1_decay_mul":0,"l2_decay_mul":1,"filters":[{"sx":1,"sy":1,"depth":50,"w":{"0":0.14467291646293448,"1":0.11114872825343888,"2":0.028432088142976052,"3":-0.06772957899687176,"4":-0.08275807977520906,"5":-0.17652936849171386,"6":0.0418741244863265,"7":0.11198579930006233,"8":0.09030047755317472,"9":-0.072511213169791,"10":0.01607104813043003,"11":-0.10297122250953106,"12":-0.02990933215512088,"13":0.05819872686270556,"14":-0.027209737258114312,"15":0.04250937978245077,"16":-0.12094216216590652,"17":-0.28081072326000284,"18":0.05713144898913761,"19":0.024081352413205966,"20":0.04628250382315341,"21":0.011857794305485291,"22":0.38840074064315067,"23":-0.18768274632203608,"24":-0.6794279887878419,"25":-0.1231356710790484,"26":-0.013863567243024935,"27":0.16744957990348935,"28":-0.24809324750354309,"29":-0.04575509934506982,"30":-0.04108039392611509,"31":0.007766848756065921,"32":-0.46652441933253574,"33":-0.37559710640571636,"34":0.2426196334008872,"35":0.08172473973301073,"36":-0.004606247974285662,"37":0.24846252307343888,"38":-0.017638594915691256,"39":0.1032984057469368,"40":0.0747114191452206,"41":-1.094056245158064,"42":0.034884773347935695,"43":0.19524508508858177,"44":0.2591568797812203,"45":0.04981977696697785,"46":-0.13949587692773974,"47":-0.22816633924681204,"48":0.14476196125341798,"49":-0.0007650857619991798}},{"sx":1,"sy":1,"depth":50,"w":{"0":0.050513615463295185,"1":-0.5339302501746069,"2":0.0369289178681657,"3":-0.02862564003704376,"4":0.01807174391895856,"5":-0.36851521625446954,"6":0.02113824079176378,"7":-0.07653603514304198,"8":0.00514290221780312,"9":-0.010068640236752158,"10":0.04787349846568449,"11":-0.00034724589684745604,"12":0.004309707262222306,"13":0.058837447123634985,"14":-0.389921250830525,"15":-0.9194766506088671,"16":0.18019555448349586,"17":0.06486651174267828,"18":-0.17738452334963,"19":0.1421390760529953,"20":0.022952099305031087,"21":-0.06403201129551922,"22":-0.1023217290513254,"23":-0.22788002018106518,"24":0.30140302783326134,"25":0.02860522726739643,"26":-0.00967685717607351,"27":0.22882010704415276,"28":0.044727306409661306,"29":-0.012152609596225147,"30":0.0842026214954485,"31":0.22171595045743658,"32":-0.20997930369245976,"33":0.06445353427792942,"34":0.12292140395088305,"35":0.1179689817131274,"36":0.1685635239657377,"37":-0.265488592713897,"38":-0.036026002466866394,"39":-0.40437836866708005,"40":-0.07434170465723162,"41":-0.03539534676522948,"42":0.04158157572155797,"43":0.017549706995155498,"44":-0.8347495396149571,"45":0.017617953418900375,"46":0.021281432136715364,"47":0.062231851689674884,"48":-0.02152882561307487,"49":-0.003338530644275579}},{"sx":1,"sy":1,"depth":50,"w":{"0":0.0978740569712361,"1":0.12551829615001003,"2":0.03100007240032029,"3":-0.6397317168510523,"4":0.23907081502987387,"5":0.2617851288546532,"6":-0.032585244585480504,"7":0.3312302343138969,"8":0.021393541705385943,"9":-0.26771539488241564,"10":0.025424015014336266,"11":0.1427653334357297,"12":0.17551535017535486,"13":0.028934463074177623,"14":0.043906858244237325,"15":0.19750884237080107,"16":0.06292821041443493,"17":0.04442829185259579,"18":-0.1220252570091914,